<hashtag> 1.053440 2.093877 1.246709 -1.049004 -0.490104 -0.796059 0.327528 0.281596 -0.118162 -0.422481 0.413869 -0.533525 -0.080669 -0.389363 -1.778668 -0.060265 2.379568 1.228609 0.091417 -0.180987 0.611381 2.083469 -1.745132 0.627842 0.204210
<user> -0.149611 1.506301 -0.856392 -1.317480 -0.253151 -0.760268 -0.682137 -1.199680 0.173190 0.351137 -0.210051 -1.615330 0.109857 0.423706 -1.741484 0.152837 1.196055 1.471018 -0.700075 0.424095 1.766901 0.770893 -1.894059 1.445449 0.341563
<allcaps> 0.618107 -0.248648 -1.291460 -2.369203 -0.611934 -0.772618 -0.586382 -0.893880 0.178595 -0.591050 -0.363491 -0.772261 -0.420315 -0.056768 -1.316913 -0.682597 1.363114 1.301600 -0.910015 0.346313 1.663976 1.722765 -1.260298 0.857729 1.180847
<url> 0.308849 1.328192 1.277287 -1.233635 -1.021397 -0.804077 -0.473443 -0.233521 -0.559903 -0.497165 0.356553 0.144824 -0.064804 -0.356033 -1.792923 0.112273 2.054556 0.855373 -0.179849 0.248390 0.800091 1.668351 -1.277160 0.981156 0.491697
<number> -0.314878 0.473045 -0.377515 -0.690322 0.141985 -1.421591 -1.757448 -0.400894 -1.193254 -1.390462 0.962021 0.122713 -0.834594 -1.084896 -0.900298 0.347829 1.982673 0.840252 0.249637 0.993993 0.916780 0.615825 -1.237610 1.215725 0.977108
the 0.259369 1.362620 -0.081844 -0.250366 0.392085 -0.700318 0.307327 -1.094053 0.013983 -1.094342 -0.135799 -0.345856 -0.004594 -0.147803 -1.036432 0.853437 1.531662 1.306823 -0.527472 0.337726 1.130635 0.529018 -1.103856 0.957190 0.040311
<repeat> 0.483815 1.312365 0.147968 -1.501124 0.851766 -0.022213 -0.095311 -1.096175 -0.134656 -0.198590 0.249993 -0.504862 -0.032740 -0.757068 -0.746615 0.198676 1.912600 0.798302 -0.983154 0.597847 0.928535 1.552306 -1.041400 0.761843 0.474358
to 0.654324 1.405390 -0.115700 0.214655 0.669812 -0.451625 -0.140075 -0.871995 0.356188 -1.154322 0.194580 -0.359822 0.359033 -0.022117 -0.883455 0.222601 0.965284 0.993150 -0.089557 0.632343 1.056031 0.758330 -1.174476 0.748438 -0.437299
a 0.590562 0.969380 -0.117917 -0.323815 0.656972 -0.215902 0.033698 -0.910639 0.171295 -0.903009 0.069542 -0.138674 -0.377805 -0.267394 -0.755936 0.499791 1.382140 1.055509 -0.417530 0.626448 0.814375 1.090182 -1.094772 0.773984 0.098442
: 0.319538 0.672345 -0.605877 -1.570026 -0.520019 -0.576873 -0.659951 -0.618037 0.288334 0.078751 -0.131314 -0.928194 0.044565 0.080283 -1.517975 -0.260519 1.173015 1.071798 -0.536185 0.160357 1.463132 1.155148 -1.245740 0.958369 0.422155
rt 0.568210 0.510118 -0.174621 -1.533084 -0.476191 -0.563108 -0.184858 -0.632740 0.139846 -0.225534 -0.426649 -0.983309 0.181911 0.132896 -1.310593 -0.216214 1.367553 1.006120 -0.789152 0.342645 1.430877 1.569472 -1.313250 0.874112 0.612519
i 0.571447 1.507028 -0.599631 -0.010293 0.612162 -0.369224 -0.256100 -0.838498 0.620607 -0.299322 0.397800 -1.036559 -0.060546 0.262860 -1.078899 0.251866 0.753597 0.672692 -0.378955 0.112942 1.512764 0.319380 -1.091583 0.910262 -0.329762
on 0.403096 0.864488 0.262212 -0.202302 0.171242 -0.434834 0.181017 -0.708064 -0.134989 -0.936892 0.079234 -0.286076 0.124072 -0.001459 -0.908226 0.306439 1.072293 0.850846 -0.330549 0.197443 0.922521 0.668409 -0.973595 0.904974 0.109985
and 0.216683 1.085001 -0.080185 -0.365594 0.205462 -0.413604 -0.126128 -0.699341 0.004610 -0.661472 0.241316 -0.278715 0.005197 -0.150333 -1.021127 0.240174 1.220104 0.880050 -0.247676 0.205476 0.871355 0.621389 -1.044871 0.842573 0.092868
for 0.105604 0.827312 0.031332 -0.085671 0.338916 -0.389824 -0.096138 -0.839175 -0.051229 -0.806457 0.246414 -0.312122 0.054371 -0.015261 -0.755575 0.205368 1.095926 0.727353 -0.227932 0.473785 0.916884 0.588401 -0.869673 0.943316 0.124346
is 0.289589 0.885126 -0.310667 -0.320690 0.418591 -0.540479 -0.272948 -0.765461 0.021323 -0.713575 0.239623 -0.461805 -0.189442 -0.202607 -0.744834 0.419750 1.184865 0.848136 -0.215407 0.577543 0.990252 0.495399 -0.962481 0.821045 0.074315
de 1.053990 0.669244 0.245445 -0.748325 0.773252 -0.011905 0.363845 -0.249375 0.246824 -0.334751 0.075108 0.005088 -0.622981 -0.424929 -0.716878 0.298445 1.170342 0.709282 -0.456866 0.154507 -0.062638 1.384431 -1.004512 0.472823 -0.166025
. 0.312304 0.817350 -0.331877 -1.401700 0.931024 0.004084 -0.227211 -1.270969 -0.160767 -0.127749 0.256271 -0.674567 -0.064902 -0.705187 -0.486264 0.244452 1.495985 0.709707 -0.930630 0.687195 0.953502 1.135289 -0.848068 0.677620 0.318162
- -0.037190 0.687730 0.435736 -0.668274 -0.378769 -0.370811 -0.459318 -0.577906 -0.333056 -0.773599 0.402626 0.438431 -0.145012 -0.244284 -1.022815 0.063459 1.346619 0.658616 -0.195310 0.286173 0.566375 0.839382 -0.658434 0.920128 0.545048
in 0.034125 0.699441 -0.033764 -0.167561 0.334338 -0.527211 -0.142627 -0.777368 -0.264659 -0.961648 0.280687 -0.058186 -0.101359 -0.204126 -0.611448 0.300065 1.137801 0.736173 -0.220156 0.425969 0.833569 0.650306 -0.931825 0.903811 0.278416
my 0.228856 0.751223 -0.292738 -0.340056 0.565158 -0.433139 0.230969 -1.005298 -0.222055 -0.797546 0.101949 -0.497748 -0.024412 -0.005699 -0.806546 0.465451 0.954197 0.851339 -0.355719 0.347637 1.078746 0.461374 -1.026518 0.917003 0.145102
of 0.122919 0.733377 -0.164376 -0.248596 0.357542 -0.446728 0.027331 -0.738434 -0.052142 -0.822137 0.048804 -0.068848 -0.249632 -0.333327 -0.573909 0.602964 1.064706 0.852557 -0.311261 0.309233 0.651539 0.454040 -0.669484 0.634378 0.152551
you 0.564095 1.021740 -0.395857 -0.245753 0.191461 -0.237119 -0.269918 -0.778729 0.550745 -0.392944 0.141713 -0.780056 0.100768 0.403385 -0.860578 0.103605 0.665629 0.812195 -0.335453 0.217203 1.238881 0.408501 -0.895820 0.740842 -0.193764
me 0.593200 0.729005 -0.313647 -0.559888 0.468802 0.028361 -0.039007 -0.550593 0.388850 -0.260587 0.056314 -0.310495 -0.164303 -0.129176 -0.543132 0.055199 0.892049 0.674853 -0.390224 0.285122 0.554471 0.936395 -0.931196 0.601217 0.006781
it 0.370561 0.743499 -0.382129 -0.209813 0.352810 -0.275155 -0.127094 -0.786325 0.318917 -0.572501 0.155862 -0.451798 -0.048322 0.000444 -0.639424 0.159083 0.751480 0.717061 -0.318267 0.435732 0.860772 0.534154 -0.829068 0.801117 0.039358
with 0.203136 0.719324 0.090972 -0.254490 0.028243 -0.444051 -0.091474 -0.560589 -0.180741 -0.767842 0.096550 -0.167648 0.009350 -0.028616 -0.642011 0.169412 1.078939 0.718572 -0.169983 0.257630 0.650906 0.654704 -0.808065 0.671062 0.194188
en 0.834961 0.601882 0.117343 -0.664421 0.611195 0.035986 0.305536 -0.132666 0.380389 -0.204108 -0.048599 -0.097673 -0.458571 -0.270364 -0.553579 0.281939 1.032027 0.689357 -0.369764 0.121772 0.112382 1.119873 -0.879411 0.226494 -0.053071
new 0.263368 0.716885 -0.092281 -0.662545 0.284152 -0.465110 0.015799 -0.553548 -0.057361 -0.691007 0.073563 0.052931 -0.290190 -0.547243 -0.771509 0.555099 1.363794 0.990882 -0.365385 0.277689 0.544070 0.478587 -0.632911 0.357217 0.252809
<smile> 0.376996 0.884611 0.233244 -0.751956 0.050168 -0.330693 -0.088700 -0.343210 0.005727 -0.252557 0.062116 -0.183972 -0.152229 -0.243483 -0.809432 0.143540 1.265182 0.655378 -0.368123 0.219210 0.564781 1.004605 -0.918155 0.559533 0.270526
, 0.016994 0.749779 -0.859420 -0.932767 0.048191 -0.215046 -0.460211 -0.894755 0.440298 0.433036 -0.039965 -0.944676 -0.074256 0.263484 -0.882623 -0.008907 0.469998 0.736199 -0.474348 0.188572 1.033231 0.343366 -1.080750 0.749078 0.032962
! 0.377753 0.530303 -0.294488 -1.275238 0.529817 -0.067888 -0.266636 -0.879331 -0.075627 -0.021186 0.080824 -0.617186 -0.166455 -0.433843 -0.442453 0.092501 1.124720 0.618977 -0.790308 0.506490 0.688951 1.021382 -0.670303 0.499129 0.347082
no 0.588666 0.554668 0.003400 -0.734792 0.377990 0.030955 0.060382 -0.140671 0.301195 0.010598 0.083844 -0.202836 -0.249619 -0.250725 -0.526459 0.109172 0.816064 0.464771 -0.353314 0.060913 0.127875 0.992349 -0.780341 0.325889 0.022595
que 0.707768 0.591559 -0.068259 -0.623875 0.603518 0.035191 0.212545 -0.253726 0.394947 -0.131495 0.064373 -0.194704 -0.284477 -0.237809 -0.514542 0.218485 0.839869 0.555945 -0.375590 0.124455 0.204112 1.016470 -0.815727 0.266802 -0.118377
/ -0.273156 0.354905 -0.259974 -0.536930 -0.142392 -0.840349 -1.144365 -0.214308 -0.406341 -0.542608 0.675692 -0.275903 -0.582032 -0.529720 -0.659824 0.059996 1.072903 0.439018 -0.073456 0.331944 0.691313 0.695548 -0.493144 0.883823 0.744677
your 0.248358 0.627710 0.169343 -0.174295 0.204072 -0.199562 0.248791 -0.606713 -0.052837 -0.551065 0.029781 -0.262616 0.086025 0.109347 -0.551530 0.132897 0.701510 0.512261 -0.244948 0.240204 0.560747 0.510985 -0.720303 0.597008 0.101479
at 0.007997 0.510427 0.037198 -0.208271 0.064969 -0.414951 -0.163374 -0.529741 -0.151754 -0.537869 0.172206 -0.129767 -0.078963 -0.145263 -0.537169 0.269521 0.730262 0.551349 -0.142806 0.229754 0.503311 0.440929 -0.674105 0.669588 0.235222
cream -0.038831 0.780457 1.816821 -0.166822 -1.339216 -0.746951 -0.816521 1.424154 -1.216855 -1.392703 -1.341851 0.484848 0.059060 -0.533415 -0.425251 -0.126600 0.664279 0.326783 -0.301482 0.326810 -0.448251 0.273714 -0.672533 -0.375282 1.422118
that 0.212492 0.706197 -0.319083 -0.227259 0.249836 -0.283751 -0.200709 -0.589570 0.188525 -0.312225 0.130472 -0.495389 -0.031649 0.009170 -0.580771 0.176364 0.652038 0.556736 -0.185326 0.215013 0.784968 0.382923 -0.678738 0.608802 -0.061054
el 0.788064 0.601106 0.176739 -0.487521 0.586181 -0.003105 0.278109 -0.097128 0.213507 -0.244935 0.034229 -0.074584 -0.333397 -0.332103 -0.422461 0.309528 1.045626 0.578080 -0.306497 0.159669 0.123834 0.983432 -0.784828 0.243816 -0.097846
ice -0.017345 0.700609 1.288437 -0.180057 -0.843795 -0.735334 -0.851090 0.953672 -0.967655 -1.087299 -0.519976 0.468613 0.005801 -0.561078 -0.423116 -0.319839 1.186732 0.452671 0.067990 0.263908 -0.127422 0.334320 -0.611862 -0.060921 1.056644
this 0.152151 0.637456 -0.156769 -0.376770 0.174785 -0.447699 -0.100001 -0.572798 0.071220 -0.319562 0.161214 -0.352185 -0.068986 -0.031019 -0.635217 0.225324 0.792564 0.647846 -0.259853 0.261704 0.639907 0.361229 -0.742034 0.645439 0.071418
y 0.680489 0.658338 0.139759 -0.518336 0.381406 -0.054959 0.113025 -0.040556 0.253589 -0.194947 0.052839 -0.028014 -0.297542 -0.289979 -0.592116 0.180968 0.991209 0.585548 -0.199824 0.062977 0.152285 1.017648 -0.770711 0.246707 0.022346
<elong> 0.412712 0.692258 -0.165048 -0.877833 0.088237 -0.188698 -0.458103 -0.373644 0.303872 0.105805 0.214089 -0.313075 -0.195327 -0.272232 -0.691157 0.062343 0.971944 0.562386 -0.284494 0.168906 0.538801 0.792634 -0.739094 0.404034 0.174674
& 0.194130 0.752914 0.052289 -0.409481 -0.001433 -0.346397 -0.127506 -0.368430 -0.020630 -0.267351 0.080968 -0.337174 -0.073452 -0.081279 -0.687468 0.062735 0.863971 0.617934 -0.183831 0.165540 0.562879 0.591906 -0.710600 0.504082 0.163130
galaxy 0.643975 0.221526 1.082396 -0.797800 -0.507886 -0.714933 0.327530 0.777953 -0.587797 -0.263932 0.114721 0.909205 0.238385 -0.184653 -0.626881 -0.263097 1.656615 0.478810 -0.336965 -0.688520 0.021938 0.673374 0.242560 -0.028480 -0.136020
android 0.011819 0.492502 0.651685 -0.395724 -0.411583 -0.553980 -0.523493 0.350083 -0.777993 -0.807733 0.094972 0.282272 -0.095803 -0.573273 -0.575354 -0.021926 1.218251 0.443130 0.136180 0.221938 0.251818 0.653657 -0.601946 0.280460 0.562403
iphone -0.222956 0.265636 -0.701314 -0.544991 0.422238 -0.694027 -0.704995 -0.719512 -0.535873 -0.648999 0.436926 -0.180487 -0.425487 -0.552283 -0.495778 0.474045 0.979961 0.659234 -0.082915 0.643026 0.801635 0.121258 -0.773235 0.710930 0.390630
la 0.785930 0.427385 0.021622 -0.573646 0.649558 0.016235 0.303336 -0.296635 0.250381 -0.308963 -0.023006 -0.116038 -0.437696 -0.296117 -0.496832 0.266110 0.888931 0.593184 -0.418646 0.159428 0.106906 0.997218 -0.704814 0.334930 -0.095894
not 0.254351 0.489788 0.003067 -0.036852 0.238830 -0.234713 0.166459 -0.616488 -0.097487 -0.551460 0.000304 -0.338335 0.108626 0.154042 -0.432757 0.253998 0.654148 0.464426 -0.256201 0.228537 0.696292 0.480549 -0.652725 0.602083 -0.024366
from 0.169752 0.542521 -0.145143 -0.351448 0.076123 -0.247617 -0.036189 -0.449992 -0.034098 -0.312644 -0.031054 -0.386095 -0.008527 -0.039462 -0.584265 0.131853 0.718527 0.579650 -0.248773 0.190057 0.622112 0.444875 -0.644573 0.465347 0.134142
be 0.322442 0.635523 -0.182340 0.063341 0.317864 -0.178471 0.043665 -0.631652 0.235752 -0.649080 0.036543 -0.181773 0.184330 0.161184 -0.333750 -0.006724 0.585105 0.586574 -0.221814 0.234967 0.643677 0.610711 -0.725244 0.587000 -0.149931
have 0.408599 0.829731 -0.377719 0.169765 0.394815 -0.205458 -0.135637 -0.508019 0.280557 -0.402467 0.106588 -0.479386 0.019060 0.168879 -0.551466 0.142443 0.521789 0.515316 -0.282159 0.287800 0.900505 0.349541 -0.693457 0.614388 -0.221346
get 0.131574 0.743856 -0.287053 0.018927 0.276194 -0.152520 0.028390 -0.707749 0.244602 -0.480985 -0.054387 -0.423379 0.173515 0.256574 -0.443199 0.091340 0.421372 0.583605 -0.319416 0.214647 0.804637 0.376618 -0.799707 0.594975 -0.101723
nexus 0.439923 0.215615 1.096223 -0.806560 -0.424695 -0.698810 0.223481 0.457425 -0.700080 -0.341541 0.306066 0.913371 0.018192 -0.128671 -0.573518 -0.184265 1.517363 0.431398 -0.255441 -0.477049 -0.082426 0.687209 0.032446 0.283283 0.026040
microsoft 0.199492 0.458617 0.396996 -0.523445 -0.360929 -0.354770 -0.221145 -0.057697 -0.219845 -0.350556 0.132022 0.019110 0.007796 -0.327372 -0.640077 0.013258 1.000772 0.324545 -0.082471 0.162617 0.455489 0.791806 -0.451512 0.296048 0.311938
sandwich 0.107508 0.676223 1.230429 -0.288454 -0.838386 -0.535121 -0.260642 0.750363 -0.723913 -0.900455 -0.576445 0.327444 -0.081436 -0.326749 -0.598890 0.170232 0.612342 0.236910 -0.258010 0.142320 -0.232569 0.478979 -0.510687 -0.013965 0.775437
just 0.300474 0.647260 -0.306160 -0.079381 0.282222 -0.177487 -0.055593 -0.514278 0.252059 -0.284299 0.125428 -0.481207 0.022559 0.048597 -0.586839 0.083549 0.599627 0.483886 -0.230294 0.204216 0.740598 0.418453 -0.626183 0.522293 -0.042662
google 0.306964 0.507454 0.486425 -0.507532 -0.253752 -0.363362 -0.075367 0.023280 -0.300654 -0.374765 0.119659 0.206041 0.000673 -0.313471 -0.606843 0.029167 1.085050 0.440643 -0.116080 0.022840 0.244957 0.704767 -0.388261 0.248405 0.198622
do 0.383356 0.764186 -0.092915 -0.306679 0.146761 -0.230535 -0.114072 -0.472397 0.215188 -0.232889 0.086387 -0.506857 0.144721 0.157807 -0.568616 0.101269 0.598427 0.543436 -0.209348 0.144476 0.770144 0.427325 -0.662382 0.478885 -0.123775
an 0.104252 0.521342 -0.225188 -0.163529 0.030298 -0.246403 0.071397 -0.481290 0.038180 -0.220323 -0.076484 -0.496065 0.087463 0.152154 -0.453764 0.015355 0.479814 0.477203 -0.295937 0.234669 0.617659 0.369151 -0.611567 0.420732 0.118731
via 0.270811 0.542030 0.216293 -0.366804 -0.443969 -0.536114 -0.151832 -0.545658 -0.167821 -0.198587 -0.365292 -0.884857 0.240116 0.216437 -0.833245 0.147626 1.002811 0.651417 -0.468234 0.512873 0.984048 0.882178 -0.945647 0.650708 0.188098
phone -0.051027 0.214674 0.175783 -0.583997 0.188838 -0.446472 0.118439 -0.265469 -0.664560 -0.658078 0.278237 0.222808 -0.275469 -0.532068 -0.561006 0.532894 0.903673 0.566506 0.004570 0.319184 0.354655 0.346407 -0.528822 0.474369 0.384919
are 0.276507 0.581888 -0.038159 -0.286236 0.171443 -0.222084 -0.042460 -0.451229 0.162890 -0.349884 0.090493 -0.334471 -0.009204 0.084719 -0.499217 0.156346 0.575998 0.534133 -0.225365 0.213906 0.619715 0.406478 -0.574809 0.466520 0.002904
so 0.249716 0.556238 -0.150641 -0.325440 0.139155 -0.252211 -0.071263 -0.445770 0.199794 -0.209183 0.097007 -0.369358 -0.056894 0.011056 -0.552596 0.114058 0.624220 0.492982 -0.175410 0.063990 0.615101 0.403893 -0.584470 0.424420 0.041274
like 0.282158 0.731559 -0.028021 -0.142384 0.166140 -0.249344 -0.046164 -0.398186 0.181473 -0.292196 0.120772 -0.304894 -0.035482 0.023354 -0.569399 0.087038 0.666705 0.464123 -0.152146 0.090424 0.590338 0.424638 -0.627943 0.430735 -0.025039
all 0.267874 0.554777 0.089450 -0.174427 0.177036 -0.253898 0.150852 -0.417407 -0.035748 -0.584602 0.067465 -0.173920 0.044425 -0.002989 -0.444873 0.121775 0.709676 0.529503 -0.190383 0.183817 0.569176 0.516993 -0.575090 0.539460 0.063601
windows -0.094666 0.154227 0.207685 -0.496632 -0.007205 -0.400527 -0.050248 -0.039453 -0.610423 -0.484898 0.274551 0.307340 -0.185453 -0.628649 -0.507082 0.353080 0.757164 0.387919 0.166919 0.220518 0.252170 0.316269 -0.371124 0.264611 0.288562
but 0.227479 0.569273 -0.185324 -0.336649 0.275869 -0.185308 -0.086011 -0.494566 0.119960 -0.236891 0.093732 -0.338872 -0.038536 -0.060036 -0.503779 0.141461 0.634108 0.515492 -0.228947 0.156091 0.623491 0.427289 -0.617741 0.464827 0.018099
how 0.409789 0.657032 0.136372 -0.186505 0.093692 -0.279075 -0.052465 -0.251743 0.121502 -0.247159 0.033690 -0.328974 0.084907 -0.062155 -0.599166 0.132630 0.648699 0.464546 -0.078689 0.241423 0.504307 0.478602 -0.522031 0.289679 -0.099256
out 0.006767 0.457127 -0.158425 -0.107640 0.031242 -0.297201 -0.367419 -0.338043 0.066864 -0.364166 0.185690 0.029349 -0.126000 -0.142948 -0.425483 0.218278 0.625143 0.479323 -0.017355 0.120445 0.323439 0.145649 -0.526859 0.412776 0.083946
s -0.205618 0.292802 -0.292275 -0.413883 0.102444 -0.754450 -0.848479 -0.437914 -0.550568 -0.657634 0.576228 0.194157 -0.484525 -0.496296 -0.446321 0.180424 1.024986 0.473961 0.096361 0.539241 0.429362 0.162579 -0.628390 0.707218 0.457165
now 0.223877 0.440690 -0.100223 -0.415020 0.061283 -0.282856 -0.142531 -0.408056 0.065112 -0.317059 0.072959 -0.262146 -0.141541 -0.048548 -0.519357 0.049115 0.610336 0.496344 -0.278823 0.212495 0.529531 0.535593 -0.583149 0.472604 0.194721
un 0.391498 0.360388 0.187525 -0.367801 0.219030 -0.085884 0.170246 -0.106342 0.050537 -0.237414 0.046644 -0.092502 -0.160419 -0.143748 -0.366153 0.112304 0.573937 0.350083 -0.195116 0.123032 0.120035 0.615230 -0.505714 0.216116 -0.021757
steve 0.194148 0.326664 0.049963 -0.574704 -0.357763 -0.161438 -0.352954 0.067375 0.082010 -0.000709 0.044234 -0.223071 0.067170 0.066908 -0.543502 -0.146491 0.693184 0.342649 -0.050239 0.133862 0.534214 0.865492 -0.351788 0.176461 -0.072259
can 0.314611 0.588748 -0.082450 -0.206911 0.143877 -0.169485 -0.061944 -0.359230 0.207107 -0.207759 0.081374 -0.371900 0.043296 0.082212 -0.451350 0.074271 0.458980 0.434320 -0.164309 0.080970 0.549836 0.314643 -0.526954 0.350312 -0.061491
o 0.290017 0.495673 0.178309 -0.446045 0.016287 -0.216542 0.000364 -0.079837 -0.012836 -0.154637 0.135307 -0.155112 -0.069504 -0.177725 -0.446893 0.042314 0.664174 0.355004 -0.100522 0.053892 0.245116 0.630274 -0.552438 0.229504 0.017002
up 0.157445 0.525339 -0.153369 -0.268839 0.070018 -0.150238 -0.214788 -0.280312 0.106953 -0.154113 0.131741 -0.215780 0.039246 -0.056132 -0.438971 0.070990 0.562369 0.391395 -0.031484 0.098615 0.476216 0.330467 -0.440189 0.301502 -0.000018
by 0.169271 0.445431 0.204327 -0.212034 -0.056815 -0.228960 0.105105 -0.328062 -0.054424 -0.265919 -0.055900 -0.314222 0.070806 0.056329 -0.499542 0.085403 0.640090 0.420383 -0.223243 0.199900 0.413339 0.551873 -0.535764 0.411906 0.096965
what 0.265218 0.571741 -0.106609 -0.281899 0.126199 -0.208438 -0.172446 -0.385662 0.178050 -0.156482 0.112698 -0.390629 0.012879 0.013896 -0.496350 0.118095 0.532257 0.436729 -0.153322 0.170347 0.593199 0.343698 -0.535288 0.401173 -0.060815
es 0.463559 0.383413 0.057622 -0.346439 0.184515 -0.061367 0.111831 -0.121907 0.160153 -0.204982 0.012218 -0.138306 -0.141307 -0.140561 -0.374342 0.103772 0.585428 0.383534 -0.200840 0.059307 0.167327 0.654198 -0.522151 0.183006 0.042642
when 0.204525 0.472829 -0.189467 -0.254578 0.151951 -0.150282 -0.164519 -0.408333 0.185315 -0.150438 0.120371 -0.356316 -0.027078 0.030088 -0.446005 0.148234 0.458840 0.417403 -0.126952 0.158395 0.504397 0.250513 -0.444547 0.381433 -0.037881
has 0.128178 0.463166 -0.182043 -0.289493 0.162685 -0.256489 -0.226656 -0.365281 -0.052498 -0.275842 0.177308 -0.188594 -0.115861 -0.186885 -0.432320 0.145121 0.668821 0.441175 -0.101056 0.252167 0.517333 0.440025 -0.524342 0.463302 0.058731
if 0.189421 0.473337 -0.202594 -0.286381 0.083346 -0.148271 -0.174487 -0.441089 0.223128 -0.066713 0.007375 -0.470109 0.000544 0.179300 -0.518652 0.126067 0.421574 0.438268 -0.193906 0.111096 0.642190 0.197765 -0.490273 0.426742 -0.034993
i'm 0.192154 0.449751 -0.090482 -0.227716 0.232137 -0.160946 -0.071969 -0.409189 0.131973 -0.238418 0.114438 -0.257720 -0.002041 -0.045295 -0.417484 0.132987 0.528181 0.409244 -0.175346 0.155823 0.525802 0.371517 -0.471746 0.408511 0.039537
or 0.249452 0.437047 -0.027091 -0.243043 0.151897 -0.166612 0.008596 -0.319404 -0.022845 -0.306694 0.001402 -0.213934 -0.020860 -0.054572 -0.357625 0.118751 0.584867 0.404122 -0.225238 0.211429 0.393513 0.451075 -0.514844 0.394104 0.067626
para 0.393258 0.520041 0.219765 -0.341165 0.193277 -0.090009 0.141122 -0.017232 0.084656 -0.201151 0.031537 -0.061698 -0.132693 -0.155159 -0.399298 0.148656 0.655382 0.372740 -0.180093 0.043235 0.110497 0.627900 -0.481069 0.208408 -0.020637
? 0.147527 0.466723 -0.226747 -0.648460 0.079025 -0.240624 -0.259405 -0.470837 -0.000009 -0.052799 0.099152 -0.320258 -0.108960 -0.126088 -0.478553 0.067944 0.685244 0.479716 -0.268716 0.208524 0.514831 0.478919 -0.551708 0.405921 0.187649
ios 0.045461 -0.039309 -0.588724 -0.633335 0.158375 -0.380602 -0.197358 -0.552657 -0.230781 -0.685467 0.001347 -0.249164 -0.151288 -0.259004 -0.400440 0.074482 0.673195 0.585735 -0.283712 0.365446 0.811477 0.483755 -0.599718 0.463773 0.471343
why 0.210809 0.650910 -0.289977 -0.422119 0.067906 -0.220012 -0.254725 -0.444931 0.311467 0.010873 0.119345 -0.456110 -0.007383 0.061148 -0.619897 0.064762 0.479826 0.485340 -0.183391 0.063779 0.693416 0.241104 -0.592316 0.461195 -0.028694
as 0.138527 0.470552 -0.101937 -0.107347 0.069063 -0.130191 -0.066111 -0.437866 0.044950 -0.299060 0.029240 -0.208029 0.008764 0.058478 -0.379528 0.030712 0.460589 0.377200 -0.142921 0.196949 0.473289 0.377866 -0.500491 0.390624 0.033059
it's 0.156849 0.459171 0.127426 -0.211690 0.167022 -0.153779 0.047853 -0.348087 -0.050879 -0.347558 0.069213 -0.146056 -0.023363 -0.030371 -0.446577 0.120426 0.593726 0.398387 -0.198833 0.206418 0.415292 0.467033 -0.501329 0.445462 0.076200
con 0.418793 0.514451 0.202853 -0.361727 0.194765 -0.117985 0.091705 -0.051014 0.042742 -0.232306 0.031895 -0.103157 -0.145983 -0.201648 -0.448236 0.096473 0.766767 0.397546 -0.177563 0.058557 0.196083 0.649070 -0.542643 0.242145 0.041395
about 0.213031 0.446064 0.039045 -0.114963 0.119800 -0.191745 0.018224 -0.285908 0.028307 -0.232913 0.022480 -0.196251 0.020540 -0.007316 -0.368833 0.092894 0.460615 0.343626 -0.120355 0.115118 0.421794 0.345363 -0.417658 0.290836 -0.024854
will 0.165259 0.438445 -0.245824 -0.175206 0.027538 -0.184494 -0.192712 -0.254576 0.240887 -0.138774 0.074275 -0.234890 0.046428 0.057163 -0.297998 -0.078752 0.370365 0.334794 -0.035623 0.009370 0.391733 0.304188 -0.445279 0.292977 -0.048371
store -0.091759 0.406158 -0.339749 -0.401698 -0.015640 -0.271139 -0.328177 -0.435900 0.091480 0.017781 0.071164 -0.247324 -0.034892 -0.014658 -0.514180 0.151491 0.306237 0.428314 -0.146695 0.096181 0.500592 0.074913 -0.487814 0.477449 0.107493
more 0.122290 0.372009 0.163252 -0.125005 0.100805 -0.195618 0.083351 -0.251912 -0.126806 -0.313008 0.081868 -0.056989 -0.069257 -0.070965 -0.352215 0.134843 0.521569 0.351490 -0.138098 0.148241 0.281919 0.393787 -0.438270 0.281682 0.046568
por 0.321764 0.378214 0.032315 -0.358228 0.213520 -0.081859 0.041186 -0.151211 0.090166 -0.176418 0.022741 -0.118392 -0.085877 -0.161789 -0.311647 0.134811 0.522168 0.339158 -0.173914 0.073140 0.136399 0.548623 -0.419802 0.183945 0.002599
se 0.309138 0.374589 0.040506 -0.369393 0.180009 -0.072373 0.055547 -0.134598 0.114813 -0.099469 0.058335 -0.165557 -0.090419 -0.148738 -0.354405 0.023355 0.534588 0.307232 -0.151501 0.062007 0.202428 0.554078 -0.410014 0.210236 0.059972
was 0.154757 0.464496 -0.116662 -0.071902 0.155128 -0.196078 -0.042747 -0.284930 0.101122 -0.239453 0.084966 -0.280629 -0.019348 -0.016412 -0.378888 0.113781 0.445019 0.299320 -0.123862 0.138385 0.463945 0.276799 -0.465450 0.372120 0.005474
app 0.132914 0.423767 -0.137992 -0.334582 0.092049 -0.223088 -0.175853 -0.222464 0.170895 -0.002009 0.083318 -0.193098 -0.045234 -0.069134 -0.396197 0.126461 0.516053 0.426271 -0.070278 0.043615 0.335217 0.190475 -0.330904 0.227829 -0.045708
we 0.214411 0.438734 -0.030666 -0.290489 0.077629 -0.098621 -0.085035 -0.276082 0.168541 -0.096957 0.098358 -0.276048 -0.003590 -0.010550 -0.363063 0.035208 0.390369 0.334467 -0.161674 0.060256 0.417504 0.298833 -0.406927 0.282914 -0.018515
ballmer 0.176580 0.207640 0.308602 -0.288918 -0.329625 -0.103258 -0.162091 0.218049 -0.017220 -0.001980 0.079955 -0.004242 0.081203 0.096261 -0.325508 -0.073796 0.417550 0.170224 0.068769 0.024822 0.203452 0.599874 -0.107676 0.003819 -0.109688
go 0.241264 0.321556 0.188984 -0.073434 0.052231 -0.100907 0.096741 -0.111979 0.005810 -0.187297 0.013688 -0.101689 0.071757 0.037078 -0.340370 0.069632 0.328876 0.231395 -0.121881 0.068748 0.220609 0.310399 -0.360696 0.171145 -0.030654
off 0.270097 0.445796 -0.010718 -0.422814 -0.129672 -0.242460 -0.109186 -0.137246 0.083339 -0.166142 0.014981 -0.203814 0.015842 -0.137021 -0.488545 -0.070981 0.688201 0.412468 -0.126163 0.031525 0.457459 0.593690 -0.439279 0.270583 0.188472
one 0.097210 0.225079 -0.175641 -0.315664 0.114221 -0.225643 0.022636 -0.406389 0.002789 -0.314694 -0.020490 -0.202927 -0.104594 -0.095257 -0.331869 0.147808 0.461546 0.409419 -0.216554 0.159695 0.393804 0.340792 -0.422810 0.380662 0.158824
samsung 0.459287 0.544463 0.365833 -0.448779 -0.411046 -0.324053 -0.087290 0.410287 0.008205 -0.087783 0.091848 0.234723 0.060478 -0.235600 -0.661288 -0.113400 0.998515 0.396608 -0.007361 -0.312504 0.182714 0.483996 -0.183733 -0.027308 -0.034422
twitter 0.124530 0.265731 0.121927 -0.205700 -0.018481 -0.196330 0.068391 -0.237209 -0.100691 -0.233677 -0.000877 -0.141940 0.071317 -0.046309 -0.389976 0.039266 0.457346 0.270030 -0.144260 0.125798 0.293810 0.306747 -0.363597 0.327483 0.122367
lo 0.281635 0.141488 -0.205441 -0.410822 0.187937 -0.065736 0.073836 -0.281916 0.131264 -0.105547 -0.006401 -0.212911 -0.119950 -0.041296 -0.288874 0.050387 0.418951 0.299644 -0.260916 0.126735 0.260442 0.494928 -0.369949 0.196430 0.066935
great 0.101819 0.284632 -0.116702 -0.237602 0.134056 -0.165795 -0.029862 -0.246124 0.043726 -0.129052 -0.058611 -0.157322 -0.081253 -0.132546 -0.284503 0.222599 0.483434 0.397485 -0.182340 0.121823 0.314114 0.267898 -0.335619 0.232924 0.030823
its 0.131504 0.332415 0.134906 -0.137224 0.060926 -0.149309 0.115278 -0.209624 -0.086036 -0.255706 0.059361 -0.072032 -0.062541 -0.058741 -0.299503 0.078791 0.457964 0.320693 -0.100105 0.103229 0.240245 0.339928 -0.330239 0.273811 0.028055
u 0.143389 0.295567 -0.151314 -0.226534 0.049247 -0.123980 -0.164230 -0.230316 0.099449 -0.021853 0.043377 -0.289750 -0.007113 0.008209 -0.307881 0.071275 0.287025 0.269428 -0.089695 0.115002 0.385499 0.189123 -0.348744 0.257726 0.052221
good 0.215584 0.410976 0.225246 -0.187792 0.149253 -0.155875 0.102863 -0.118312 0.010359 -0.154056 0.038222 -0.112377 -0.052477 -0.096815 -0.321261 0.124084 0.511426 0.315164 -0.102487 0.098277 0.197156 0.401426 -0.393130 0.196384 0.014321
time 0.176665 0.395358 -0.007972 -0.104851 0.205305 -0.221620 -0.040868 -0.220679 0.052355 -0.184559 0.100567 -0.176475 -0.024368 -0.070243 -0.352769 0.089211 0.489476 0.356663 -0.118313 0.176290 0.313996 0.239165 -0.348573 0.258404 -0.022994
apple 0.058390 0.306430 -0.185876 -0.329120 0.082745 -0.200997 -0.223716 -0.377472 -0.035740 -0.151155 0.035700 -0.216738 -0.050541 -0.010702 -0.370630 0.092403 0.444822 0.365945 -0.192152 0.206974 0.513925 0.258069 -0.419623 0.425768 0.141811
love 0.174404 0.521887 -0.276500 -0.074048 0.154862 -0.151125 -0.017599 -0.398873 0.189657 -0.148581 0.053935 -0.424012 -0.004439 0.184951 -0.434304 0.084428 0.283588 0.329810 -0.257302 0.082804 0.630048 0.180704 -0.522750 0.434334 -0.099788
q 0.159629 0.288446 -0.043263 -0.220879 0.149900 -0.083154 -0.088726 -0.125677 -0.017556 -0.140808 0.097546 -0.041459 -0.145441 -0.174968 -0.238606 0.079731 0.408040 0.218617 -0.120005 0.127751 0.147041 0.318319 -0.367909 0.242331 0.065693
le 0.186794 0.290923 0.023367 -0.234082 -0.021332 -0.125601 0.030958 -0.120155 0.054965 -0.071899 -0.056612 -0.202179 0.001529 0.031689 -0.337717 0.005267 0.350291 0.255015 -0.138694 0.057034 0.302005 0.342699 -0.359682 0.229800 0.045231
really 0.106496 0.427578 -0.036885 -0.054983 0.114606 -0.117747 0.000226 -0.274602 0.142911 -0.131626 -0.015894 -0.286957 0.066532 0.089066 -0.305495 0.071685 0.293871 0.239771 -0.120263 0.078308 0.371943 0.224295 -0.336121 0.232450 -0.055546
they 0.059435 0.253063 -0.169934 -0.167571 0.120116 -0.098751 -0.162045 -0.213509 0.091870 -0.029819 0.042406 -0.238940 -0.013590 0.055528 -0.271235 0.033687 0.159727 0.241917 -0.104759 0.074620 0.292820 0.103503 -0.270746 0.254243 -0.026482
ya 0.250541 0.391784 -0.055650 -0.386550 0.089001 -0.055772 -0.120150 -0.095455 0.185303 0.059182 0.060196 -0.181785 -0.046867 -0.126428 -0.349113 0.004492 0.463733 0.254508 -0.135632 0.017394 0.248062 0.461809 -0.404273 0.200899 0.035265
| 0.210956 0.489494 0.430187 -0.263935 -0.297161 -0.289452 -0.088724 0.105353 -0.100501 -0.162159 0.097845 0.072609 0.007875 -0.113002 -0.545323 -0.050945 0.735739 0.301315 -0.003487 -0.011126 0.185173 0.473950 -0.330909 0.212569 0.146465
need 0.319706 0.506182 -0.033095 0.057561 0.208131 -0.128217 -0.124761 -0.231099 0.174750 -0.234896 0.084462 -0.255178 0.010876 0.038554 -0.377949 0.130590 0.338780 0.316876 -0.083364 0.286965 0.456590 0.290690 -0.366772 0.251155 -0.157604
some 0.055083 0.320175 -0.008675 -0.179379 0.083555 -0.217259 -0.029662 -0.196519 -0.054736 -0.238585 0.045591 -0.140802 -0.040775 -0.065557 -0.274237 0.100067 0.429523 0.309241 -0.114344 0.172728 0.293609 0.275725 -0.397185 0.310023 0.100765
use 0.181303 0.568261 0.128060 -0.044607 0.169987 -0.175817 0.037216 -0.300484 -0.000815 -0.521673 0.108674 -0.053276 0.121623 0.028577 -0.386664 0.004047 0.416089 0.392897 -0.109338 0.147794 0.342220 0.394681 -0.532515 0.343338 -0.058031
don't 0.154238 0.508201 -0.195910 -0.020431 0.108246 -0.113152 -0.116351 -0.304341 0.250286 -0.076405 0.053369 -0.383223 0.024574 0.203426 -0.434591 0.021788 0.227399 0.281942 -0.128314 0.011391 0.531688 0.135255 -0.402916 0.369741 -0.092839
mi 0.315155 0.310912 0.107267 -0.288277 0.237321 -0.063805 0.098868 -0.160854 0.057685 -0.175638 -0.023557 -0.029584 -0.109776 -0.178729 -0.260755 0.125621 0.529118 0.359771 -0.159045 0.077254 0.121012 0.474736 -0.395161 0.159965 0.059879
people 0.151048 0.352810 -0.041682 -0.125701 0.061751 -0.133629 -0.136331 -0.176396 0.116209 -0.127950 0.058687 -0.154038 0.005779 -0.033354 -0.257801 0.040022 0.333413 0.250425 -0.061797 0.081679 0.263846 0.217312 -0.278914 0.200647 -0.037155
siri 0.019195 0.261363 -0.328156 -0.289681 0.062516 -0.184140 -0.271435 -0.305298 0.122347 -0.075243 0.029864 -0.324203 -0.014542 -0.007797 -0.316194 0.029059 0.311361 0.255247 -0.081696 0.153513 0.457763 0.109522 -0.326176 0.298122 0.081401
thanks 0.135929 0.477019 -0.167729 -0.275975 0.151099 -0.202187 -0.081118 -0.399678 0.102739 -0.135547 -0.032660 -0.401042 0.044573 -0.044854 -0.489225 0.050957 0.565384 0.438600 -0.221794 0.265580 0.551268 0.375917 -0.488799 0.419459 0.063471
$ -0.224041 0.038191 -0.124156 -0.163984 0.209060 -0.369012 -0.459691 -0.180291 -0.573083 -0.612863 0.350134 0.124133 -0.282680 -0.458517 -0.174514 0.249042 0.560274 0.224283 0.079644 0.413499 0.306498 0.244478 -0.346521 0.332942 0.280692
know 0.174595 0.401919 -0.159219 -0.051507 0.034554 -0.060143 -0.103412 -0.250324 0.216556 -0.107282 0.023236 -0.268064 0.031712 0.174840 -0.289052 -0.021019 0.157546 0.251896 -0.069129 0.035675 0.413108 0.140230 -0.323977 0.291741 -0.108113
see 0.147430 0.359704 -0.065654 -0.014291 0.091935 -0.082522 -0.009881 -0.315360 0.110132 -0.264988 0.057859 -0.161675 0.089239 0.057476 -0.258973 0.037279 0.277361 0.270570 -0.086275 0.063540 0.367604 0.245070 -0.416715 0.333627 -0.063345
e 0.189514 0.443369 0.158403 -0.276770 -0.094685 -0.148138 -0.058527 -0.015852 0.039434 -0.149498 0.071734 -0.088395 -0.030293 -0.078499 -0.447733 -0.002787 0.532607 0.296312 -0.046330 -0.017619 0.208953 0.426328 -0.422323 0.188026 0.051115
got 0.153545 0.260945 -0.076717 -0.115205 0.061792 -0.073050 0.020849 -0.194118 0.103687 -0.129876 0.022322 -0.174820 0.018587 0.074103 -0.299293 -0.034991 0.241299 0.254985 -0.115915 0.076482 0.323601 0.214995 -0.306442 0.247338 -0.008768
los 0.286356 0.234119 0.078589 -0.293371 0.194257 -0.052495 0.037450 -0.119538 0.031624 -0.168625 0.014576 -0.034964 -0.155278 -0.132432 -0.291056 0.091781 0.454373 0.279549 -0.134986 0.080200 0.093862 0.493240 -0.374347 0.174178 0.018569
free 0.033220 0.233388 0.067696 -0.234749 -0.007786 -0.099093 -0.079986 -0.089401 -0.091334 -0.111922 0.076194 0.000859 -0.017053 -0.155907 -0.220401 0.054066 0.398024 0.196389 -0.019810 0.073934 0.201907 0.251767 -0.174445 0.105964 0.123182
their 0.094639 0.286505 0.155848 -0.083456 0.141970 -0.124081 0.157741 -0.224757 -0.138990 -0.311165 0.007629 -0.085912 0.003790 0.019141 -0.278265 0.126499 0.409915 0.281141 -0.179501 0.130376 0.217551 0.331645 -0.388282 0.323181 0.079660
" 0.074003 0.355456 -0.152196 -0.538636 -0.087154 -0.277988 -0.209091 -0.367578 0.031766 -0.009898 -0.060348 -0.431509 -0.015498 0.030450 -0.584809 0.008966 0.528972 0.475689 -0.260825 0.177656 0.582942 0.480136 -0.594410 0.444529 0.167883
w -0.075782 0.355280 -0.160956 -0.236443 -0.103100 -0.311483 -0.648723 -0.017250 0.035961 -0.014838 0.332398 -0.196489 -0.262001 -0.181400 -0.398474 -0.036404 0.405060 0.238682 0.029512 0.000230 0.290946 0.251639 -0.189778 0.384102 0.190399
after 0.077472 0.262665 0.001145 -0.172424 0.079748 -0.149154 -0.061320 -0.178239 -0.071859 -0.143686 0.075808 -0.174727 -0.043512 -0.057095 -0.243129 0.115977 0.383775 0.218050 -0.051042 0.087550 0.227645 0.187907 -0.292447 0.231648 0.034855
want 0.248508 0.473633 -0.155911 0.102502 0.179630 -0.101017 -0.093877 -0.257721 0.240932 -0.222710 0.081795 -0.335836 0.077971 0.113166 -0.332343 0.073538 0.222487 0.239716 -0.116481 0.118695 0.477870 0.175030 -0.325131 0.284935 -0.152221
been 0.128345 0.234579 -0.064247 -0.048299 0.090273 -0.146195 -0.090957 -0.176757 -0.049468 -0.207731 0.042988 -0.123211 -0.065170 -0.080092 -0.229116 0.091585 0.318286 0.258531 -0.077017 0.187598 0.278334 0.270974 -0.325864 0.237680 0.046704
would 0.168366 0.392959 -0.277472 -0.101118 0.091419 -0.068512 -0.139549 -0.260887 0.281456 -0.016948 0.074189 -0.275170 0.027563 0.113721 -0.275482 -0.002848 0.177959 0.245676 -0.134331 0.057367 0.426629 0.126484 -0.367458 0.308990 -0.107666
back 0.130575 0.273529 -0.041039 -0.076089 0.144156 -0.141171 -0.013322 -0.290684 0.019016 -0.274844 0.007727 -0.159985 0.006243 -0.030037 -0.219358 0.121942 0.326102 0.285010 -0.133386 0.209484 0.346668 0.254782 -0.343156 0.259403 0.014014
only 0.084403 0.248874 -0.143472 -0.175794 0.132628 -0.188458 -0.049126 -0.295179 -0.085762 -0.216429 0.063968 -0.155155 -0.104276 -0.057866 -0.263960 0.128016 0.359336 0.294156 -0.116587 0.207830 0.322351 0.205797 -0.354190 0.300146 0.070765
please 0.081066 0.224325 -0.132969 -0.240298 -0.023818 -0.037093 -0.082160 -0.203421 0.159475 0.034511 0.021478 -0.258740 0.046045 0.076827 -0.273373 -0.032076 0.171529 0.208667 -0.093566 0.055102 0.315934 0.222639 -0.290117 0.227868 0.024547
search 0.099672 0.315950 0.244454 -0.096122 -0.053632 -0.080758 0.070658 -0.032947 -0.067304 -0.134873 0.123195 0.068965 -0.043821 -0.014570 -0.272231 0.013051 0.380812 0.165137 -0.043719 0.017191 0.078343 0.294773 -0.240452 0.151335 0.032823
) 0.012465 0.284450 -0.146253 -0.391206 -0.005759 -0.245641 -0.289443 -0.324587 -0.045635 -0.076508 0.127570 -0.165065 -0.097701 -0.020616 -0.451253 0.046116 0.373152 0.317238 -0.135617 0.133911 0.352508 0.229112 -0.421483 0.399265 0.164904
still 0.152855 0.363778 -0.028407 -0.126889 -0.008697 -0.078043 -0.099662 -0.139559 0.126725 -0.075108 0.059539 -0.178473 -0.014585 0.022029 -0.313145 -0.001108 0.300822 0.235536 -0.074976 -0.010882 0.323095 0.229042 -0.327391 0.194611 -0.019318
who 0.153660 0.261419 -0.013130 -0.206475 -0.056914 -0.114671 -0.044218 -0.086934 0.095961 -0.111378 0.050563 -0.091197 -0.016397 -0.079456 -0.279298 -0.061868 0.321655 0.203441 -0.028766 -0.012778 0.228332 0.280932 -0.245276 0.114722 0.017498
al 0.186489 0.258522 0.115244 -0.218937 0.159035 -0.127653 0.036102 -0.122313 -0.049026 -0.251725 0.029563 -0.049388 -0.107133 -0.111560 -0.248752 0.086299 0.460846 0.261588 -0.115252 0.115648 0.096606 0.356555 -0.350562 0.202601 0.021967
lol 0.212664 0.289345 -0.087583 -0.481803 -0.055337 -0.149325 -0.065352 -0.259810 0.077924 -0.076668 -0.017412 -0.312478 0.024960 -0.019882 -0.389276 -0.025071 0.514394 0.337751 -0.237409 0.132633 0.439554 0.473284 -0.412683 0.266123 0.186129
should 0.157272 0.414564 -0.146854 -0.077123 0.050888 -0.108531 -0.104847 -0.175897 0.201063 -0.018818 0.059368 -0.268870 0.039428 0.076811 -0.306860 -0.059348 0.292484 0.247699 -0.102930 -0.039721 0.363594 0.198368 -0.300723 0.242496 -0.160540
del 0.243256 0.256093 0.100715 -0.248540 0.161671 -0.091825 0.090592 -0.139276 -0.010625 -0.105480 0.050408 -0.076152 -0.115846 -0.093178 -0.291947 0.072180 0.434904 0.267928 -0.126110 0.078746 0.162886 0.360740 -0.299716 0.205268 -0.008818
had 0.134257 0.249569 -0.199410 -0.015169 0.128360 -0.022719 -0.039206 -0.261151 0.104058 -0.110006 0.050355 -0.218952 -0.013280 0.053196 -0.253384 0.010509 0.220075 0.224821 -0.105193 0.117348 0.357179 0.175568 -0.263424 0.206221 -0.036920
make 0.106525 0.353453 -0.092714 0.021863 0.150049 -0.055668 0.008254 -0.280905 0.104615 -0.265253 0.029485 -0.118776 0.105125 0.049656 -0.186408 -0.019578 0.220756 0.252199 -0.099412 0.055983 0.333973 0.271909 -0.351423 0.304192 -0.053602
update -0.020845 0.221781 -0.219641 -0.201699 0.076129 -0.210961 -0.172063 -0.293980 -0.011795 -0.200422 0.083822 -0.220789 -0.054890 -0.052328 -0.236030 0.091227 0.306580 0.267144 -0.105561 0.191985 0.369177 0.134639 -0.306560 0.304195 0.116154
can't 0.146420 0.368453 -0.180973 -0.010140 0.097278 -0.058557 -0.097619 -0.168273 0.160435 -0.043806 0.095313 -0.217939 0.020236 0.043586 -0.245853 0.025199 0.150534 0.190178 -0.072512 0.055125 0.324519 0.117599 -0.255449 0.173636 -0.075972
ceo 0.217991 -0.001813 -0.187779 -0.518362 -0.313456 -0.177239 -0.138232 -0.000032 0.115685 -0.157975 -0.082735 -0.111600 0.019588 -0.105213 -0.328062 -0.240055 0.501037 0.243622 -0.121058 -0.004997 0.433335 0.566801 -0.227252 0.083003 0.310423
video 0.094802 0.227420 0.068551 -0.221888 -0.086655 -0.161760 -0.058044 -0.073753 0.019250 -0.133325 0.078423 -0.007019 -0.045554 -0.045998 -0.333829 0.010023 0.390374 0.205617 -0.073559 0.019725 0.134990 0.252808 -0.303358 0.167634 0.071682
available 0.082541 0.159869 0.136613 -0.100839 0.083292 -0.124141 0.101267 -0.214286 -0.082239 -0.225948 0.059376 -0.012705 -0.080203 -0.028278 -0.190950 0.085226 0.243781 0.183135 -0.130955 0.138804 0.151152 0.255394 -0.214891 0.233201 0.078823
here 0.149570 0.359140 0.437446 -0.080496 0.025603 -0.089294 0.218157 -0.084423 -0.206159 -0.274254 0.096133 0.056496 -0.045091 -0.023999 -0.312033 0.150870 0.376552 0.147085 -0.102843 0.038563 0.011428 0.319588 -0.360804 0.222966 0.050712
las 0.191981 0.272694 0.063503 -0.180355 0.123829 -0.039623 0.079953 -0.097551 0.034132 -0.129158 0.038012 -0.035130 -0.101782 -0.114019 -0.227889 0.123595 0.409973 0.216862 -0.088513 0.062047 0.111994 0.375955 -0.298977 0.162323 -0.027274
phones -0.009090 0.178243 0.229600 -0.229533 -0.036122 -0.179597 0.038876 -0.032339 -0.207872 -0.197937 0.116819 0.177613 -0.083392 -0.178550 -0.283372 0.069546 0.329140 0.167965 0.039008 0.059062 0.015856 0.219316 -0.237028 0.167290 0.121484
como 0.192049 0.267120 0.102838 -0.125041 0.089368 -0.036043 0.005862 -0.035559 0.057981 -0.114747 0.030853 -0.043136 -0.107276 -0.046372 -0.208107 0.049297 0.328935 0.190384 -0.058413 0.020274 0.084089 0.270085 -0.233916 0.129491 -0.018046
users 0.066270 0.167440 0.157973 -0.055307 0.050373 -0.143377 -0.003921 -0.077658 -0.066296 -0.138340 0.164705 0.073178 -0.068032 -0.097721 -0.129427 0.056313 0.209969 0.135898 -0.012932 0.103884 0.057365 0.141088 -0.197261 0.183913 0.039060
into 0.075140 0.120305 0.112625 0.088560 0.056100 0.033746 0.096778 -0.147012 -0.057840 -0.126091 -0.044100 0.050246 -0.020954 0.098446 -0.032257 0.027239 0.142202 0.052524 -0.049793 0.121982 0.071423 0.167735 -0.126668 0.085065 0.036262
live 0.033752 0.078997 0.097172 -0.192624 -0.094454 -0.133406 -0.032198 -0.019723 -0.043666 -0.109295 0.013961 0.027691 -0.028860 -0.040293 -0.160841 -0.039791 0.281441 0.093677 -0.017223 -0.010961 0.065406 0.223224 -0.153349 0.053864 0.117039
am 0.148676 0.396217 -0.214874 0.004494 0.106361 -0.121448 -0.124617 -0.256891 0.150310 -0.087438 0.105465 -0.261759 -0.042817 0.062669 -0.305637 0.029707 0.222048 0.150556 -0.114393 0.031166 0.409797 0.042229 -0.287096 0.284478 -0.080890
best 0.115170 0.177775 -0.146999 -0.377924 0.049499 -0.169050 0.069957 -0.307372 0.040547 -0.167831 -0.078484 -0.108458 -0.098778 -0.089563 -0.276226 0.078268 0.424819 0.369611 -0.196293 0.089942 0.259132 0.248100 -0.274531 0.177842 0.120504
dear 0.059626 0.401476 -0.222114 -0.377933 -0.071473 -0.225623 -0.123677 -0.356874 0.059814 0.036123 -0.083744 -0.440877 0.000604 0.083997 -0.483067 0.002035 0.447597 0.391282 -0.223185 0.132380 0.514002 0.364947 -0.479418 0.374928 0.123477
esta 0.237994 0.265493 0.055758 -0.206138 0.148185 -0.033626 0.056029 -0.150429 0.085643 -0.081481 0.014031 -0.071639 -0.047901 -0.056455 -0.199897 0.054746 0.376526 0.219826 -0.128382 0.081809 0.136962 0.353407 -0.282067 0.137974 0.014953
over -0.004056 0.189145 0.007566 -0.135710 0.068737 -0.186439 -0.111006 -0.127050 -0.113773 -0.201261 0.077537 -0.116803 -0.041532 -0.082891 -0.200256 0.102074 0.289125 0.181446 -0.016552 0.135073 0.191879 0.204325 -0.303657 0.220123 0.094806
any 0.015216 0.152176 -0.030821 -0.054264 0.102452 -0.066354 0.136526 -0.286402 -0.053681 -0.156886 -0.070591 -0.194296 0.042712 0.083249 -0.151713 0.093389 0.190097 0.178303 -0.213026 0.137971 0.257117 0.177213 -0.242083 0.221691 0.052538
find -0.096683 0.123089 -0.011420 0.127095 -0.059244 -0.154774 -0.315525 -0.054566 0.027940 -0.163849 0.160660 0.133820 -0.068987 -0.016715 -0.144251 0.020743 0.149928 0.080708 0.113370 0.036834 0.035214 -0.126097 -0.165869 0.162048 0.044649
going 0.201028 0.315306 0.027409 0.032862 0.216561 -0.105705 -0.024360 -0.150415 0.010137 -0.199029 -0.003913 -0.191923 0.034601 -0.012545 -0.249981 0.174006 0.298312 0.244597 -0.035975 0.240120 0.271829 0.193201 -0.259291 0.134778 -0.105006
os 0.130941 -0.104687 -0.153359 -0.414400 -0.164115 -0.216777 -0.080264 -0.100338 -0.044937 -0.272953 -0.070418 -0.106358 -0.013221 -0.075915 -0.199878 -0.163718 0.394687 0.257457 -0.124264 0.046645 0.321509 0.341787 -0.240087 0.161142 0.289462
service -0.019794 0.105526 -0.049589 -0.135524 -0.064089 -0.032876 -0.103518 -0.070422 0.034284 -0.014382 0.019369 -0.051982 0.017736 -0.023470 -0.132864 0.018380 0.120264 0.114330 0.001810 -0.001961 0.115704 0.075866 -0.106498 0.086230 0.059389
si 0.223320 0.265005 0.042324 -0.152517 0.107933 0.000218 0.061899 -0.045173 0.070689 -0.020963 0.030723 -0.091975 -0.081168 -0.030847 -0.179506 0.057313 0.261984 0.187164 -0.064134 -0.006804 0.062221 0.285481 -0.251394 0.128226 -0.047937
then 0.136993 0.152602 0.240784 -0.030326 0.039689 0.056120 0.147767 0.029670 -0.009347 -0.031359 0.035057 0.032875 0.080074 -0.005565 -0.194431 0.046777 0.175691 0.062116 -0.033729 -0.043685 0.002199 0.165996 -0.136044 0.066340 -0.075621
too 0.055941 0.219026 0.066323 -0.072338 -0.016236 -0.034313 0.037552 -0.107665 0.032491 -0.011424 -0.025148 -0.140844 0.004464 0.053245 -0.182369 0.019799 0.196320 0.128180 -0.052696 0.062536 0.140940 0.131025 -0.197194 0.113979 -0.000697
's 0.078690 0.220326 -0.274579 -0.450221 -0.036532 -0.108389 -0.209145 -0.222195 0.099068 0.117261 0.035226 -0.276310 -0.094169 0.030222 -0.355035 0.017538 0.221971 0.316822 -0.140977 0.023891 0.342010 0.189179 -0.370277 0.264906 0.052066
next 0.080025 0.182125 0.083911 -0.200413 -0.046949 -0.094352 0.088100 -0.046362 -0.076089 -0.033972 0.020329 -0.003712 -0.070941 -0.033039 -0.231192 0.068643 0.233368 0.133783 -0.070778 0.033498 0.091047 0.127799 -0.167082 0.118551 0.049777
think 0.113129 0.387054 -0.179965 0.111585 0.214000 -0.080829 -0.031702 -0.275077 0.206533 -0.063164 0.090540 -0.300506 -0.000331 0.122247 -0.214440 0.088477 0.097521 0.151497 -0.095582 0.022634 0.386582 0.005565 -0.256070 0.271117 -0.143165
using 0.169121 0.319416 0.172979 -0.131342 0.002408 -0.082867 0.093072 -0.137449 -0.012534 -0.174164 0.003942 -0.117878 0.012010 0.015045 -0.271800 0.043536 0.359767 0.256243 -0.107453 0.025552 0.219809 0.314078 -0.314705 0.190887 0.039652
world -0.063946 0.068436 -0.046403 -0.106767 0.056840 -0.039914 0.084643 -0.106702 0.041601 0.080998 -0.070567 -0.022406 -0.012557 -0.018210 -0.001790 0.141218 0.018990 0.091748 -0.118464 0.046223 0.008260 -0.078478 -0.018567 0.052856 0.000190
da 0.122651 0.096448 -0.067067 -0.358247 -0.055514 -0.129338 -0.006701 -0.188321 0.037224 -0.088418 -0.089743 -0.167471 -0.010862 -0.040732 -0.205308 -0.039963 0.255545 0.241612 -0.137723 0.045703 0.196625 0.298026 -0.283159 0.102646 0.111805
let 0.061380 0.146131 -0.061154 -0.002681 0.066180 0.042322 -0.100119 -0.125551 0.169654 0.029150 0.044163 -0.123767 0.057548 0.045766 -0.170978 0.008912 0.050053 0.122538 -0.067222 0.042303 0.078939 0.092677 -0.180822 0.178166 -0.053311
our 0.095992 0.143609 -0.029353 -0.209027 0.017796 -0.110274 0.033170 -0.164535 -0.029114 -0.167512 -0.021035 -0.079840 -0.054349 -0.019730 -0.200899 -0.017063 0.254736 0.226619 -0.148846 0.107152 0.235747 0.272643 -0.264865 0.164839 0.108464
touch -0.008190 0.208957 -0.193243 -0.126156 -0.108237 0.008043 -0.133298 -0.100099 0.144045 0.127458 -0.079292 -0.271779 0.049842 0.068454 -0.273734 -0.048797 0.042499 0.145641 -0.030702 -0.043680 0.217392 -0.005768 -0.153303 0.114949 0.045835
te 0.158371 0.200656 0.145270 -0.129169 0.045693 -0.044159 0.058971 0.032042 0.022092 -0.082948 0.010076 -0.035861 -0.005828 -0.061749 -0.144240 0.052503 0.283404 0.129695 -0.087994 0.010267 0.048126 0.274641 -0.222880 0.080431 0.003294
than 0.035937 0.080675 0.059094 -0.001907 0.091932 -0.136408 0.077432 -0.093406 -0.169204 -0.179419 0.000391 -0.061821 -0.041041 -0.034947 -0.095842 0.096201 0.190442 0.159781 -0.057581 0.116540 0.116133 0.137530 -0.212841 0.116869 0.048302
( 0.104590 0.318938 0.202103 -0.189283 0.032286 -0.259850 -0.119473 -0.075993 -0.163006 -0.224895 0.157309 -0.058197 -0.121124 -0.118405 -0.317560 0.054036 0.469635 0.280567 -0.016398 0.107148 0.145570 0.256287 -0.388505 0.260979 0.123816
ics 0.213185 -0.054222 -0.173335 -0.476054 -0.210113 -0.162619 -0.055054 -0.108806 0.019914 -0.214104 -0.103367 -0.185079 -0.002809 -0.008589 -0.310376 -0.156573 0.409906 0.316792 -0.134018 0.020480 0.435808 0.478230 -0.318484 0.177223 0.275195
apps 0.045516 0.200465 0.003551 -0.085292 0.014486 -0.088129 -0.030566 -0.102820 -0.039856 -0.067591 0.057999 -0.102410 -0.006092 -0.059488 -0.201353 0.033326 0.246712 0.136864 -0.062889 0.061052 0.155225 0.162047 -0.201910 0.163028 0.039174
check 0.085595 0.239700 -0.022500 -0.094502 -0.112947 -0.108574 -0.216424 -0.039157 0.148614 -0.008509 0.049130 -0.045469 0.076421 -0.021921 -0.280533 -0.030417 0.209835 0.163144 0.077404 -0.056836 0.156709 0.153496 -0.236964 0.150764 -0.086628
een 0.113350 0.137419 0.128005 -0.024273 -0.008850 -0.019528 0.076435 -0.043934 -0.031066 -0.039702 0.003331 -0.015233 -0.005076 -0.003385 -0.091741 0.037765 0.124517 0.059570 0.014521 0.031608 0.067008 0.137089 -0.075115 0.074518 0.022036
screen 0.010237 0.136576 0.159709 -0.023639 0.026729 -0.056029 0.063304 -0.055209 -0.107742 -0.130062 0.033447 0.094146 -0.037547 -0.008099 -0.158827 0.035463 0.199510 0.098310 -0.056067 0.051277 0.010710 0.094349 -0.126041 0.137425 0.038759
tech -0.090364 0.126801 -0.143679 -0.112033 0.033429 -0.084799 -0.040523 -0.161992 -0.053402 -0.032241 -0.090594 -0.067466 -0.014825 -0.016618 -0.099716 0.102920 0.151493 0.194854 -0.114327 0.053082 0.133296 0.016009 -0.130413 0.136943 0.065086
thank 0.101213 0.208444 -0.119523 -0.215705 -0.063348 -0.069647 -0.109223 -0.152895 0.155378 0.091310 -0.019540 -0.207187 0.000839 0.121758 -0.283272 -0.024544 0.178504 0.189809 -0.057278 -0.005190 0.281554 0.113658 -0.225889 0.181388 -0.015358
cloud 0.079949 0.181450 0.058932 -0.177060 -0.037138 -0.086025 -0.059778 -0.099873 -0.011110 -0.103171 0.023117 0.004785 -0.018585 -0.106852 -0.230288 0.049306 0.387096 0.189518 -0.049040 0.045766 0.135656 0.250758 -0.178898 0.108320 0.079700
even 0.071639 0.098199 -0.039903 -0.002050 0.050854 0.002070 0.023405 -0.089411 0.041010 0.015031 -0.003763 -0.115814 0.003912 0.024278 -0.067930 0.020387 0.071529 0.072696 -0.042520 0.006192 0.142200 0.051872 -0.091717 0.081657 -0.028271
hey 0.037475 0.289853 -0.294293 -0.332800 -0.052923 -0.139338 -0.112925 -0.366399 0.172716 0.121537 -0.100894 -0.478807 0.105046 0.165576 -0.351067 0.000512 0.210481 0.335608 -0.212033 0.140177 0.519398 0.218683 -0.427348 0.342047 0.038143
mas 0.144551 0.092644 -0.051445 -0.178397 0.078909 -0.006846 -0.002654 -0.105411 0.068562 -0.053059 0.013246 -0.047312 -0.091398 -0.049942 -0.135167 0.033455 0.212195 0.124491 -0.062206 0.053610 0.097023 0.223485 -0.185588 0.094432 0.067743
una 0.169705 0.260306 0.189689 -0.098188 -0.013734 -0.052757 0.069350 0.057590 0.031994 -0.082389 0.012852 0.056010 -0.020890 -0.099186 -0.195777 0.048275 0.323069 0.150501 -0.007877 -0.039173 -0.015682 0.278195 -0.164153 0.034919 -0.017326
us 0.037231 0.026450 -0.098604 -0.118438 0.020913 -0.024244 -0.027195 -0.120265 0.030762 -0.074750 -0.018637 -0.041435 0.037710 0.057254 -0.115609 -0.023223 0.093963 0.116833 -0.045341 0.089113 0.188989 0.156889 -0.175274 0.114127 0.013098
way 0.113501 0.231847 -0.083240 -0.077863 0.135925 -0.106232 -0.039260 -0.127478 0.098983 -0.103839 -0.002875 -0.081917 -0.006984 -0.097778 -0.205130 0.166848 0.300178 0.238419 -0.032555 0.097087 0.166977 0.037892 -0.111676 0.070850 -0.042890
did 0.138767 0.278105 -0.095344 -0.146774 -0.001400 -0.091531 -0.096806 -0.129364 0.131249 -0.031988 0.031167 -0.235892 0.033458 0.048375 -0.298358 0.029158 0.235238 0.220622 -0.055405 0.010953 0.289586 0.142096 -0.257464 0.154336 -0.021333
looks 0.039985 0.154748 0.069842 -0.160636 -0.062349 -0.059370 -0.015314 -0.010515 0.041722 0.039573 0.025264 -0.009834 -0.046423 -0.027439 -0.161014 -0.024872 0.175815 0.068663 -0.004662 -0.056079 0.054801 0.131476 -0.122517 0.059977 0.031878
better 0.074740 0.188559 -0.012525 -0.016122 0.046455 -0.074959 -0.040450 -0.088309 0.050947 -0.064439 -0.009981 -0.059843 0.026800 0.031761 -0.118997 0.070046 0.093360 0.116370 -0.056133 0.022867 0.134536 0.081825 -0.164220 0.088682 -0.055599
could 0.082312 0.194826 -0.092085 -0.005142 0.059102 -0.042408 -0.044291 -0.115479 0.109995 0.000482 0.027384 -0.146608 0.000981 0.044987 -0.158842 0.007814 0.076120 0.112718 -0.064316 -0.004812 0.174220 0.026986 -0.131259 0.127936 -0.037181
first -0.003901 0.113616 -0.083113 -0.123665 0.087228 -0.131979 -0.009530 -0.126223 -0.070765 -0.126955 0.046301 -0.037008 -0.049390 -0.140187 -0.116636 0.147801 0.264327 0.190008 -0.082855 0.113987 0.138269 0.078096 -0.153438 0.118569 0.112370
look 0.047515 0.133557 0.055217 -0.106789 -0.024676 -0.021540 -0.065688 -0.066691 0.061203 -0.088122 0.080885 0.038367 -0.038005 -0.120529 -0.122404 0.058335 0.143043 0.131469 -0.007118 -0.014240 -0.004242 0.087610 -0.094821 0.028956 0.012206
much 0.104614 0.198585 0.024745 -0.024626 0.099339 -0.040913 0.029712 -0.094601 0.049028 -0.032330 0.021156 -0.107221 0.030466 0.012219 -0.115189 0.038227 0.134835 0.099788 0.005577 0.040243 0.126453 0.107696 -0.128311 0.079842 -0.063334
put 0.072038 0.218147 0.004215 -0.045764 -0.046122 -0.019395 -0.026822 -0.087234 0.100329 -0.093847 0.032393 -0.072649 0.053835 0.036719 -0.237159 -0.042488 0.135165 0.112675 0.022949 -0.025074 0.180765 0.137708 -0.208897 0.130588 -0.022850
sdk 0.107018 -0.100894 -0.035232 -0.284314 -0.178229 -0.224199 -0.071830 -0.057163 -0.113246 -0.314669 -0.109322 -0.018653 -0.053731 -0.061758 -0.173028 -0.117637 0.289420 0.196027 -0.141493 0.114202 0.211985 0.275494 -0.208754 0.105466 0.392765
there 0.127377 0.251775 -0.029757 -0.084291 0.031813 -0.073091 -0.061086 -0.085876 0.083574 -0.093521 0.022491 -0.093663 -0.040155 -0.053626 -0.185260 0.060120 0.298013 0.157272 -0.008024 0.098122 0.190514 0.170923 -0.233464 0.164001 -0.021174
very 0.020126 0.090500 -0.130158 -0.117614 0.029386 -0.061442 -0.092207 -0.167253 0.009710 -0.009851 0.036168 -0.162866 -0.010073 -0.003083 -0.149162 0.068679 0.151590 0.132665 0.007098 0.082791 0.180904 0.076337 -0.166366 0.145516 -0.003174
voor 0.170036 0.175339 0.106530 -0.133181 -0.017948 -0.076756 -0.001778 0.060692 0.035942 0.019443 0.032090 -0.027056 -0.005818 -0.022255 -0.192265 0.012794 0.219614 0.088598 0.043157 -0.034378 0.062542 0.175562 -0.163057 0.025957 0.007232
yo 0.065165 0.149771 -0.098035 -0.272104 0.000310 -0.047946 -0.136762 -0.106456 0.135680 0.057550 0.006753 -0.154957 -0.020951 -0.033217 -0.237729 -0.046291 0.183320 0.178882 -0.048001 0.052565 0.204338 0.225013 -0.237166 0.120523 0.039690
coming 0.136751 0.156155 0.003831 -0.028903 0.031548 -0.045049 -0.040265 -0.009085 0.084996 0.044878 0.005770 -0.069873 -0.005455 -0.002682 -0.130685 0.006446 0.093050 0.082706 0.015648 0.081539 0.101366 0.103850 -0.117120 0.023667 -0.092177
does 0.094923 0.203706 -0.020407 -0.112732 0.009412 -0.048382 -0.049360 -0.081686 0.006691 -0.036668 0.054280 -0.107360 0.024909 0.030313 -0.183334 0.042196 0.205827 0.143993 -0.011625 0.011978 0.181904 0.163448 -0.176051 0.164812 -0.026129
he 0.087339 0.123347 0.014005 -0.028547 0.068334 0.038784 0.021950 -0.016878 0.040368 0.012129 0.001623 -0.099954 -0.029975 0.008725 -0.091869 0.018512 0.057582 0.053808 -0.002407 -0.019562 0.037264 0.056659 -0.112803 0.036027 -0.022163
meu 0.147599 0.279917 0.176821 -0.191050 -0.013679 -0.109263 0.020645 -0.009965 -0.030293 -0.079832 0.046651 -0.048287 -0.021590 -0.040066 -0.263825 0.014184 0.306527 0.184861 -0.061700 0.014059 0.161574 0.262180 -0.274038 0.161612 0.011832
nuevo 0.270562 0.234669 0.248279 -0.104389 0.140189 -0.073477 0.175158 0.019998 -0.053354 -0.059406 0.078225 0.018241 -0.069144 -0.090830 -0.145534 0.116263 0.348791 0.123978 -0.068054 -0.002148 -0.044118 0.288375 -0.195647 0.074398 -0.092977
pero 0.128029 0.247585 -0.045061 -0.173315 0.066842 0.006653 -0.047317 -0.037915 0.106730 0.036928 0.058412 -0.078934 -0.047685 -0.040066 -0.203438 0.019706 0.189565 0.130680 -0.021106 -0.034346 0.119594 0.195809 -0.199244 0.090343 -0.036555
where 0.096229 0.162300 -0.079869 -0.122802 -0.011016 -0.087487 -0.042062 -0.155089 0.007145 -0.084793 -0.008082 -0.142903 -0.013815 0.007352 -0.181585 0.000369 0.183859 0.164838 -0.082512 0.093601 0.209130 0.107093 -0.175576 0.131618 0.009158
work 0.060123 0.129311 -0.027025 -0.004690 0.082994 -0.041316 0.042575 -0.155718 -0.011403 -0.099992 0.014064 -0.085729 0.054939 -0.000290 -0.078311 0.029619 0.194864 0.122343 -0.052104 0.075624 0.156577 0.123693 -0.131588 0.116393 -0.018369
 0.085123 0.209752 -0.336615 -0.407581 -0.260283 -0.172174 -0.141929 -0.240532 0.146827 0.084568 -0.234730 -0.481980 0.110934 0.141514 -0.464384 -0.139225 0.325099 0.367651 -0.257420 0.080451 0.565835 0.417204 -0.414576 0.277643 0.130796
day 0.031305 0.054444 -0.043406 -0.057804 0.076693 -0.099785 -0.105065 -0.083347 -0.082498 -0.155968 0.086850 -0.034939 -0.095656 -0.110460 -0.108589 0.073373 0.231125 0.120996 0.022145 0.099556 0.160069 0.059540 -0.145948 0.157540 0.062972
days -0.234254 -0.118018 -0.155040 0.005066 0.163789 -0.380162 -0.587387 -0.080187 -0.449395 -0.449783 0.326546 0.228270 -0.282842 -0.347750 -0.001552 0.154606 0.372737 0.056887 0.130962 0.351438 0.073088 -0.084737 -0.169842 0.304615 0.312363
devices 0.016908 0.083078 0.184706 -0.058474 0.006551 -0.126899 -0.040759 -0.019004 -0.225714 -0.221273 0.139534 0.112050 -0.106788 -0.052696 -0.084799 0.106929 0.233694 0.078135 -0.030142 0.086400 -0.060888 0.039231 -0.088452 0.164993 0.127165
followers 0.051519 0.045830 0.070188 0.005365 0.036355 -0.021491 -0.005526 0.003611 0.028489 -0.005442 0.037246 0.010968 0.008525 -0.027302 -0.061243 -0.026620 0.145109 0.031628 0.018225 0.000332 0.019089 0.050306 -0.063855 0.047503 0.046537
site 0.034302 0.098146 0.115428 -0.133341 -0.099994 -0.049594 0.004678 -0.019794 -0.056396 -0.012817 0.055710 0.015759 -0.016135 -0.031863 -0.154753 -0.040070 0.193487 0.055263 0.021628 -0.031862 0.007287 0.150624 -0.066979 0.058286 0.070804
% -0.131564 0.116113 -0.086644 0.042194 0.093333 -0.301314 -0.412545 -0.135765 -0.128142 -0.293143 0.234995 0.150922 -0.245292 -0.208120 -0.079556 0.148754 0.327323 0.131721 0.036073 0.195619 0.009889 -0.104901 -0.082125 0.198166 0.184800
= 0.143936 0.222872 0.143853 -0.243996 -0.071202 -0.142003 -0.009568 -0.046239 -0.066376 -0.096140 0.073580 -0.032755 -0.089049 -0.062731 -0.258467 0.000059 0.333573 0.172041 -0.025835 -0.005578 0.126012 0.318552 -0.264021 0.179689 0.076500
data 0.065014 0.111475 0.082140 0.046008 -0.028798 -0.018222 0.046247 0.025565 0.003327 0.025997 0.022302 0.051773 0.008976 0.019996 -0.030261 -0.048980 0.084563 0.031048 0.049666 -0.081227 -0.013140 0.060551 -0.061207 -0.008586 -0.046561
di 0.079072 0.086511 -0.052350 -0.124054 -0.014277 -0.068187 -0.020692 -0.083943 0.012781 -0.069509 0.017214 -0.049891 -0.019369 -0.028488 -0.182260 -0.025073 0.192928 0.141749 -0.048191 0.048630 0.124393 0.147140 -0.144258 0.103185 0.042382
hours -0.221769 -0.043730 -0.128528 -0.003486 0.129936 -0.379911 -0.583996 -0.041608 -0.385104 -0.408468 0.336247 0.246887 -0.298313 -0.343792 -0.029117 0.110955 0.403567 0.077331 0.177287 0.299243 0.034252 -0.118835 -0.141744 0.245705 0.290605
ipad -0.099128 0.068703 -0.176446 -0.158237 0.120239 -0.189757 -0.138996 -0.233642 -0.227912 -0.237893 0.080967 -0.105959 -0.067747 -0.176887 -0.143904 0.158280 0.309734 0.182489 -0.050070 0.205113 0.317752 0.129069 -0.245455 0.225697 0.126920
su 0.187253 0.228739 0.182165 -0.082313 0.028937 -0.099775 0.082525 -0.014744 -0.052086 -0.121686 0.003117 0.014360 -0.068764 -0.039404 -0.215712 0.047477 0.319004 0.188893 -0.016492 0.018126 0.036718 0.273584 -0.203952 0.102477 0.018317
vs. 0.163843 0.251449 0.265395 -0.144221 -0.113035 -0.050315 0.057440 0.144139 -0.051266 -0.036358 0.138520 0.072744 -0.034095 -0.113636 -0.194531 -0.021489 0.324008 0.111249 0.039192 -0.069481 -0.063690 0.273493 -0.173174 0.061038 0.012313
well 0.047714 0.201344 -0.058341 -0.134996 -0.018278 -0.047461 -0.071186 -0.101791 0.058501 0.053227 0.009402 -0.151468 0.025116 0.037160 -0.183871 -0.017249 0.147628 0.143028 -0.055463 -0.034596 0.205233 0.109433 -0.216361 0.144529 -0.028449
<sadface> 0.067492 0.193062 0.091267 -0.074090 -0.063129 -0.055775 0.056788 -0.042869 0.004140 0.011291 -0.009022 -0.094410 0.030498 0.009881 -0.159549 -0.002842 0.198948 0.136538 -0.059326 -0.013631 0.105593 0.169389 -0.144708 0.048200 0.052048
done 0.028582 0.109066 -0.095969 -0.063923 0.044183 -0.027965 -0.009653 -0.158665 0.020294 0.036783 -0.033675 -0.136068 -0.003110 0.052991 -0.092500 0.008765 0.057671 0.126752 -0.073573 0.050428 0.173090 0.079985 -0.156655 0.114004 -0.011331
je 0.010194 0.096783 0.032881 -0.039625 -0.027059 0.021665 0.006991 0.064155 0.046947 0.078204 0.012976 -0.050760 0.019887 0.040460 -0.073325 0.007807 0.008742 0.045921 0.042336 -0.050937 -0.013639 0.028701 -0.044772 -0.020636 -0.080160
jobs -0.009508 0.058861 -0.021310 -0.130573 -0.075205 0.013275 -0.052321 -0.036779 -0.008500 0.040334 -0.072886 -0.103644 0.036695 0.114467 -0.114354 0.000564 0.099225 0.063485 -0.014244 0.059782 0.168402 0.155332 -0.101715 0.097147 -0.083873
les 0.051557 0.112463 0.061672 -0.107474 0.062896 -0.044234 0.051095 -0.039684 -0.010478 0.034854 -0.003208 -0.104012 0.013926 -0.001258 -0.092671 -0.013848 0.106067 0.094449 -0.086435 0.018266 0.061264 0.112404 -0.112749 0.043073 -0.034067
million -0.155258 0.036767 -0.129162 -0.046684 0.080875 -0.311717 -0.497099 -0.106856 -0.230122 -0.264524 0.242254 0.166403 -0.264594 -0.230617 -0.077585 0.123688 0.322166 0.076601 0.061670 0.179037 0.007427 -0.118726 -0.144981 0.241365 0.223957
todo 0.107769 0.118024 0.062458 -0.027446 0.058343 -0.005597 0.076960 0.010141 0.054470 0.002856 0.009120 0.027896 -0.049950 -0.036791 -0.055593 0.026555 0.161411 0.063079 0.021776 -0.016886 -0.032484 0.146725 -0.081840 -0.002731 -0.024957
] -0.014054 0.073819 0.057395 -0.360422 0.024944 -0.061453 0.025623 -0.203648 -0.122529 -0.087779 0.081679 0.020457 -0.164798 0.003795 -0.241743 0.029426 0.177102 0.167239 -0.135013 0.117503 0.116079 0.220281 -0.242280 0.230082 0.142866
computer 0.052424 0.063510 0.071977 0.039828 0.146332 -0.045765 0.085260 -0.093371 -0.048513 -0.168004 -0.028649 0.004707 -0.016387 -0.022141 -0.043802 0.084631 0.102959 0.060625 -0.016421 0.076186 0.006241 0.035432 -0.086827 0.048925 -0.028526
didn't 0.075247 0.163827 -0.042575 -0.026280 -0.026648 -0.024475 -0.032465 -0.024824 0.072724 0.051069 0.015536 -0.070238 0.005218 0.088522 -0.113866 0.000929 0.068160 0.049567 -0.033223 -0.024031 0.119075 0.036365 -0.112865 0.048480 -0.037487
follow 0.126150 0.131703 -0.129251 -0.212464 -0.083814 -0.018930 -0.071239 -0.055093 0.142985 0.036669 -0.021663 -0.170759 0.002809 0.037219 -0.207387 -0.087594 0.192807 0.162929 -0.074641 -0.008929 0.170710 0.190697 -0.219240 0.117804 0.017910
fuck 0.057533 -0.005696 -0.209976 -0.267279 0.002636 -0.074074 -0.061096 -0.231900 0.100156 -0.056682 -0.068488 -0.157876 -0.040291 0.015726 -0.119855 -0.046740 0.159027 0.160300 -0.149849 0.047977 0.262623 0.157847 -0.139393 0.091277 0.136569
ipod -0.071862 0.211237 -0.296131 -0.183623 -0.097542 -0.001279 -0.198771 -0.116803 0.205165 0.279371 -0.032704 -0.326132 0.056223 0.074565 -0.236789 -0.053858 -0.102029 0.142858 -0.017656 -0.086079 0.216878 -0.065414 -0.136803 0.120848 0.018069
na 0.062294 0.186330 0.032189 -0.171381 -0.012072 -0.108455 -0.060406 -0.077256 -0.017002 -0.006840 -0.010748 -0.139292 0.039333 0.014120 -0.195900 -0.000231 0.204451 0.165910 -0.077061 -0.005366 0.140538 0.166867 -0.218415 0.108643 0.036866
needs 0.116355 0.218744 -0.012894 -0.040687 0.031840 -0.035228 -0.094774 -0.029907 0.093910 -0.000367 0.016329 -0.095092 0.045144 -0.049894 -0.174822 0.019303 0.183628 0.124629 0.026628 0.083068 0.158983 0.137488 -0.172454 0.110978 -0.069032
never -0.032049 0.066962 -0.024207 -0.005854 0.039507 -0.016763 0.038538 -0.083030 0.019586 0.027239 -0.034552 -0.097303 0.040502 0.089080 -0.042261 0.013336 -0.034581 0.046052 -0.074282 0.020859 0.092455 -0.007078 -0.084521 0.040413 -0.012835
says 0.121086 0.087604 0.013614 -0.114628 -0.114671 0.002656 -0.071851 0.011170 0.099547 0.063892 0.031812 -0.075920 -0.006681 0.019988 -0.141105 -0.013085 0.057843 0.083952 -0.016453 -0.046905 0.043115 0.135558 -0.032409 0.032030 -0.038003
shit 0.032302 0.105016 -0.007648 -0.096485 0.023082 -0.064039 0.047706 -0.091516 -0.016247 -0.077790 0.010214 -0.078048 -0.035758 0.027802 -0.144107 0.007480 0.179918 0.154428 -0.060935 0.044943 0.141120 0.101611 -0.119391 0.100192 0.034512
blog 0.067065 0.065672 -0.029438 -0.243317 -0.081145 -0.047751 -0.029938 -0.083856 -0.020710 0.002008 0.021743 -0.034259 -0.076863 -0.057289 -0.163096 0.004783 0.133250 0.104334 -0.080691 0.020972 0.110020 0.174365 -0.118686 0.103662 0.068482
eu 0.031880 0.037655 -0.015405 -0.070484 -0.034102 0.002420 -0.023214 0.005802 0.033740 0.045503 -0.000786 -0.047988 0.023721 0.030142 -0.079759 -0.022463 0.017679 0.015816 -0.037649 -0.025648 0.013721 0.047011 -0.084058 0.002828 -0.011661
every -0.086819 -0.050515 -0.111206 -0.071805 0.069155 -0.022393 -0.037855 -0.077872 -0.102235 -0.074132 0.015367 -0.059300 -0.019328 -0.064564 0.030324 0.030129 0.065105 0.004349 -0.063355 0.076589 0.092080 0.057491 -0.035013 0.056062 0.059592
hello -0.081509 0.058980 -0.205795 -0.114070 0.055617 0.026209 -0.042487 -0.113824 0.115930 0.189583 -0.063367 -0.130860 0.033915 0.036812 -0.005699 0.066197 -0.117045 0.084853 -0.090506 0.001970 0.088441 -0.125471 -0.065698 0.055703 -0.013123
im 0.077578 -0.025201 -0.049994 -0.160117 -0.064032 -0.051919 -0.046514 0.031622 0.047413 0.033574 -0.013307 -0.094151 -0.022069 0.007480 -0.094819 -0.085296 0.109273 0.051429 -0.006357 -0.034172 0.069585 0.100572 -0.048658 -0.014392 0.041808
made 0.040181 0.122996 -0.107364 -0.056608 0.042106 -0.016114 -0.042453 -0.119152 0.021601 -0.015309 -0.006515 -0.115370 -0.001959 0.002237 -0.122101 0.010205 0.089276 0.127815 -0.070859 0.067153 0.160593 0.096264 -0.132595 0.126854 0.015361
nice 0.047381 0.033216 -0.051586 -0.093207 0.020247 -0.008917 0.029092 -0.042448 0.043692 -0.014786 -0.006320 -0.039348 -0.044647 -0.028287 -0.061757 0.043165 0.115371 0.122526 -0.027356 -0.021256 0.050316 0.106286 -0.086177 0.008699 0.011954
tengo 0.107646 0.123814 0.062573 -0.057038 0.076519 -0.004582 0.049422 -0.031866 0.038721 -0.025834 0.015127 -0.017126 -0.035654 0.014086 -0.048090 0.062915 0.133678 0.076425 -0.033861 0.016803 -0.003382 0.192052 -0.137973 0.042900 0.001226
xd 0.153290 0.125524 0.033087 -0.264545 -0.055081 -0.076295 0.062378 -0.069511 0.009849 -0.106636 -0.014947 -0.104460 0.017433 -0.030073 -0.188310 -0.009749 0.319023 0.181284 -0.091171 0.030306 0.157534 0.298724 -0.190041 0.126256 0.114112
you! 0.014888 0.130666 0.144695 -0.012973 0.254740 0.012616 0.186529 -0.287121 -0.179263 -0.248718 0.011439 -0.031852 0.012125 -0.040061 0.015118 0.149535 0.277975 0.110329 -0.219786 0.210893 0.108480 0.206500 -0.152248 0.174186 0.076895
another 0.044419 0.121955 -0.016174 -0.098745 0.028682 -0.035449 -0.000024 -0.101989 -0.001138 -0.041065 0.032083 -0.110437 -0.013802 -0.030529 -0.117454 0.064527 0.172730 0.093459 -0.048769 0.079480 0.132399 0.110245 -0.162915 0.150220 0.026836
battery -0.081624 -0.001456 -0.141945 -0.039279 0.047299 -0.058376 -0.089114 -0.102750 -0.057443 -0.016969 0.017225 -0.024144 -0.094357 -0.033078 -0.016681 0.061554 0.083471 0.073622 -0.051683 0.106852 0.062609 -0.068656 -0.080610 0.070677 0.033510
beam 0.031507 0.170521 0.127500 -0.125205 -0.135354 -0.084540 -0.149773 0.141617 -0.085322 -0.080333 0.050819 -0.024089 0.009519 -0.083959 -0.155201 -0.085534 0.291150 0.132944 0.095381 -0.010171 0.088826 0.197464 -0.190574 0.068221 0.109316
buy 0.024761 0.054489 0.002328 0.035893 0.077536 0.011826 0.030605 -0.061843 -0.009600 -0.057096 -0.029934 -0.035550 0.011584 0.041532 -0.012064 -0.005435 0.026333 0.035421 -0.061002 0.064871 0.092294 0.037193 -0.111945 0.044142 0.003072
der 0.031099 0.143361 0.076683 -0.111708 -0.069467 -0.060292 -0.021160 -0.044075 -0.030985 -0.023439 0.007954 -0.027752 -0.019891 -0.035236 -0.135118 -0.016894 0.180366 0.112006 -0.038350 -0.012078 0.090940 0.139460 -0.120898 0.063590 0.030023
et 0.068797 0.115793 0.063178 -0.085283 -0.081238 -0.043495 -0.013734 0.024166 0.010974 0.051662 0.005168 -0.078274 0.018040 -0.023934 -0.124950 -0.066919 0.117250 0.084755 -0.027416 -0.035710 0.025747 0.132343 -0.092221 0.015990 -0.008486
give 0.087410 0.130117 -0.032853 -0.004795 0.043482 0.028648 -0.008488 -0.126906 0.060020 -0.053263 -0.005915 -0.052885 0.014985 0.037770 -0.126117 -0.001560 0.142526 0.115471 -0.060830 0.056665 0.109842 0.114247 -0.141630 0.166182 -0.010114
ha 0.096075 0.016972 -0.066191 -0.109494 0.021581 -0.069248 0.027359 -0.071869 0.013532 -0.022567 -0.008353 -0.051350 -0.038611 0.009911 -0.086958 -0.052571 0.102358 0.058883 -0.066965 0.036303 0.061064 0.123945 -0.126878 0.033829 0.039630
lanza 0.114355 0.188992 0.134081 0.046112 -0.137490 0.000140 0.028941 0.085742 0.060726 0.041868 0.066962 0.058365 -0.008819 -0.071195 -0.105048 -0.032043 0.127015 -0.011902 0.086686 -0.072100 -0.027003 0.140614 -0.000725 -0.024479 -0.093113
op 0.126260 0.149714 0.207505 -0.095407 -0.064110 -0.050450 0.038047 0.078885 -0.001573 0.010530 0.053003 -0.001061 -0.022895 -0.087069 -0.112597 -0.000116 0.240848 0.070422 0.014692 -0.067963 -0.046948 0.170174 -0.122270 0.005024 0.027041
post 0.022390 0.104701 0.132343 -0.031334 0.009485 -0.056737 0.077070 -0.000369 -0.024116 -0.043295 0.006542 0.035765 -0.001701 0.000760 -0.060927 0.005633 0.047064 0.055093 -0.006209 0.007641 0.022596 0.114622 -0.105756 0.047365 0.020424
she -0.006490 0.060229 -0.079474 -0.064685 -0.004308 -0.000896 -0.072627 -0.013735 0.076835 0.011756 -0.008511 -0.069585 -0.031624 0.029066 -0.058944 0.030212 0.001181 0.019682 -0.031294 0.016111 0.060300 -0.019602 -0.055337 0.040032 -0.006043
sur 0.129114 0.185299 0.021598 -0.140017 -0.036815 -0.064926 0.033231 -0.026416 0.104139 0.032727 0.022916 -0.159148 0.006384 0.041092 -0.190130 -0.029269 0.151998 0.106356 -0.028696 -0.034989 0.114128 0.188373 -0.196684 0.076958 0.004263
und 0.076099 0.162117 0.150789 -0.155104 -0.044971 -0.112168 -0.002047 -0.009507 -0.075110 -0.127029 0.100961 0.086702 -0.010062 -0.108720 -0.198607 -0.026305 0.310898 0.145128 -0.026161 0.011597 0.072961 0.231469 -0.125846 0.089963 0.063677
what's 0.014798 0.100210 -0.006073 -0.067651 0.057922 -0.030567 -0.004742 -0.126425 0.003911 -0.126110 -0.008959 0.032846 -0.028678 -0.068377 -0.090837 0.109161 0.118766 0.146807 -0.062891 0.038497 0.074081 0.067783 -0.087363 0.105771 0.045800
+ 0.025843 0.064075 0.053966 -0.090261 -0.002175 -0.110296 -0.071692 -0.027888 -0.022830 -0.035468 0.068008 -0.025253 -0.042962 -0.046317 -0.088267 0.018046 0.165210 0.087098 0.018337 0.009363 0.046106 0.097496 -0.117464 0.088080 0.052539
digital -0.036527 0.011509 0.087416 -0.002842 -0.107426 0.032949 0.096626 -0.027597 -0.051113 -0.004749 -0.003657 0.053771 -0.024966 0.034515 -0.051126 0.021233 -0.008570 -0.026770 -0.071761 0.045941 -0.096319 0.060028 0.064846 0.022289 0.063759
down -0.008633 0.058066 0.007125 0.022887 0.012361 -0.038244 0.010805 -0.013236 -0.046432 -0.063114 -0.014313 -0.021510 -0.012317 0.013028 -0.057145 0.020869 0.048659 -0.007493 -0.015851 0.048841 0.060897 -0.006328 -0.012471 0.050314 0.022237
google+ 0.116010 0.133835 0.149975 0.048651 0.036537 0.041978 0.190449 -0.079375 -0.015334 -0.109877 0.043691 -0.056750 0.109594 0.021909 -0.175870 0.097869 0.152387 0.118406 -0.004580 -0.027471 0.081568 0.118083 -0.166589 0.156649 -0.097846
help 0.040027 0.017821 0.055608 -0.004416 -0.019373 0.025280 0.042642 -0.017570 -0.018221 0.003828 -0.040376 -0.070983 0.000868 0.059418 -0.010268 -0.030802 -0.010238 0.040433 -0.039201 -0.013747 0.011569 0.060530 -0.025039 0.018503 -0.040383
ms 0.084789 0.113108 0.101333 -0.044948 0.007961 -0.003023 0.068131 -0.007532 -0.007972 -0.010158 0.009090 0.032787 -0.036615 0.000312 -0.119510 0.035237 0.120409 0.053888 -0.021164 0.012934 -0.021909 0.104262 -0.125511 0.015379 0.000563
mais 0.084956 0.078008 0.040052 -0.060435 0.010255 -0.006023 0.012084 0.005471 0.049952 0.033208 0.048619 0.012889 -0.040515 -0.019803 -0.095350 0.029007 0.071831 0.081358 -0.017962 -0.009089 -0.024785 0.056368 -0.102668 0.033900 -0.012959
most -0.019259 0.094037 -0.019210 -0.065926 0.018412 -0.065842 -0.089534 -0.056002 -0.000370 -0.029502 0.032776 0.034461 -0.077763 -0.056936 -0.104174 0.063130 0.093897 0.085233 0.007700 0.046600 -0.015955 -0.052758 -0.013780 0.039244 0.051214
night 0.130135 0.181681 0.261468 -0.116084 -0.003925 -0.077873 0.137499 0.050346 -0.078032 -0.049402 0.002190 -0.004352 -0.022835 -0.037324 -0.132402 0.051478 0.237543 0.090297 -0.044520 -0.000761 0.008504 0.267468 -0.184553 0.045176 -0.000570
say 0.035164 0.104246 0.012685 0.020259 0.050409 -0.041654 0.043452 -0.096779 0.007453 -0.125140 0.001850 -0.070835 0.057473 0.007772 -0.066889 -0.007475 0.075879 0.100237 -0.071365 0.029949 0.131214 0.122622 -0.136144 0.105611 -0.000894
start -0.002718 0.155771 0.126311 -0.057882 -0.021554 -0.061342 -0.029080 0.013479 -0.067580 -0.093261 0.078365 0.092775 -0.034597 -0.031895 -0.091937 0.016190 0.198120 0.049906 0.019643 -0.019075 0.007492 0.077853 -0.088477 0.045724 0.026535
take 0.021863 0.075670 -0.012347 0.057640 -0.020587 0.009064 -0.006539 0.002659 0.069496 0.016765 -0.000705 -0.029910 0.008066 0.028244 -0.022174 -0.020793 0.004170 0.046302 0.054504 0.011962 0.035234 -0.009734 -0.030352 0.001120 -0.058870
tell 0.042820 0.066772 -0.053068 -0.049131 -0.013918 0.035133 -0.050908 -0.007979 0.093169 0.074825 0.016010 -0.019577 0.043435 0.021226 -0.032218 -0.070373 -0.011947 0.052475 -0.010609 -0.032936 0.053936 0.055344 -0.072401 0.049129 -0.053987
them -0.011635 0.039724 -0.056837 0.057281 0.064976 -0.002943 -0.019458 -0.129791 0.007453 -0.108540 0.022355 -0.003836 0.005964 0.010044 -0.043365 0.049119 0.022769 0.020149 -0.019109 0.000213 0.111490 -0.011721 -0.111970 0.082783 -0.043031
top -0.087442 0.028394 0.013324 -0.058219 -0.033720 -0.073764 -0.025531 0.004052 -0.160560 -0.079219 0.037841 0.027093 -0.068101 -0.079398 -0.009823 0.062799 0.069028 0.040294 0.025432 0.043280 0.039508 -0.010216 0.007551 0.047229 0.062158
upgrade 0.036807 0.147902 -0.063280 -0.045268 0.080316 -0.091655 -0.050296 -0.124662 -0.010707 -0.085477 0.031821 -0.077343 -0.036842 -0.053477 -0.145520 0.041580 0.120551 0.114037 -0.030488 0.101240 0.101487 0.045138 -0.171114 0.108017 0.018297
-- 0.042683 0.078457 0.010506 -0.033790 -0.006959 -0.016728 -0.007452 -0.016954 0.043773 -0.003207 0.028647 0.020456 -0.006818 0.016886 -0.067083 -0.014951 0.091387 0.075915 -0.011568 -0.060494 0.027462 0.036195 -0.054765 0.012027 -0.024970
buying 0.063101 0.076604 0.200429 0.093405 0.018983 -0.035222 0.273833 -0.075290 -0.138522 -0.123184 -0.091992 0.015841 0.039012 0.113340 0.010015 0.070521 0.057256 0.018002 -0.093832 0.010902 -0.033315 0.079961 -0.086721 0.082854 -0.029716
camera 0.030294 0.033134 -0.129562 -0.208713 -0.034815 -0.088116 -0.115643 -0.047767 0.056039 0.014206 -0.039128 -0.075957 -0.033547 0.007820 -0.153531 -0.026649 0.111391 0.150444 -0.025623 0.010752 0.173718 0.087845 -0.122462 0.059141 0.060028
everyone 0.060724 0.138296 0.041172 0.021242 -0.047779 -0.045673 0.006755 0.021973 0.031088 -0.049116 0.029212 -0.018426 0.043649 -0.024085 -0.090285 -0.043548 0.072422 0.071388 0.036618 0.001408 0.021197 0.102503 -0.093720 0.016637 -0.036715
her 0.049976 0.024718 0.020163 0.022782 0.022516 0.013722 0.033342 -0.031063 0.036840 -0.022433 -0.003474 -0.023893 0.066885 0.005047 -0.038953 -0.005324 0.016917 0.010731 -0.022810 -0.044206 -0.011396 0.067137 -0.045283 0.006936 -0.043787
it. 0.015101 0.000756 -0.060488 -0.025859 0.100370 0.050280 0.048608 -0.154543 -0.044558 -0.012347 -0.030051 -0.094590 0.034848 -0.009461 0.053892 0.038064 -0.006723 0.026406 -0.132750 0.095938 0.083279 0.032716 -0.046933 0.013143 0.019994
line -0.051167 0.058848 -0.080294 -0.041893 0.008726 -0.070684 -0.066917 -0.195712 -0.028550 -0.076112 -0.026961 -0.130884 -0.001145 0.000974 -0.091228 0.036826 0.108374 0.152160 -0.095465 0.103602 0.207626 0.064217 -0.193392 0.179496 0.076786
music -0.005960 0.020278 -0.002638 -0.111865 -0.075967 -0.060155 -0.041010 0.000136 -0.011934 -0.006287 -0.016076 -0.049282 -0.045013 -0.023895 -0.075359 -0.000740 0.088034 0.038034 -0.007334 -0.005462 0.037984 0.059107 -0.040573 0.034921 0.040718
nexus: 0.161482 -0.046625 0.239743 -0.147790 -0.007078 -0.105345 0.175132 0.168745 -0.089142 0.019010 0.077932 0.198457 0.055052 0.005095 -0.017067 -0.069622 0.292978 0.024018 -0.032888 -0.242196 -0.056900 0.129221 0.160500 -0.038861 -0.116248
oficial 0.084111 0.105942 0.097034 0.028575 -0.002072 0.048710 0.070418 0.019379 0.021967 0.022031 0.093208 0.064328 -0.079861 -0.079758 -0.021839 -0.010821 0.019170 -0.044415 0.024892 -0.015506 -0.079904 0.121761 0.023573 0.001879 -0.152439
shows 0.054635 0.108820 0.103697 -0.032652 -0.083093 -0.044870 0.002515 0.045724 -0.024618 -0.003421 0.018720 0.058460 -0.017343 -0.035817 -0.120784 -0.036665 0.125992 0.004235 0.032217 -0.042353 -0.004020 0.095509 -0.082809 0.002907 0.005265
stop 0.023071 0.067141 0.094793 0.036884 0.021923 0.004658 0.124706 -0.006910 0.017970 -0.058601 -0.014468 -0.016955 0.025574 0.078842 -0.035305 0.043836 -0.016285 0.010240 0.009264 -0.007903 -0.046763 0.017795 -0.057282 0.003574 -0.049874
van 0.093636 0.132967 0.064881 -0.065732 -0.010965 -0.040573 0.082863 -0.076271 -0.012437 -0.031901 -0.006801 -0.104439 0.046248 0.041032 -0.143023 0.019451 0.166117 0.106056 -0.037720 0.048464 0.083351 0.138409 -0.159530 0.094458 0.001054
business -0.042615 0.039441 0.042537 -0.121007 -0.058481 -0.041886 -0.053694 -0.095568 -0.070048 -0.068511 0.036801 0.062373 -0.073874 -0.015918 -0.116871 0.007921 0.109206 0.083425 -0.055856 0.064600 0.028009 0.096487 -0.057643 0.145599 0.092402
cualquier -0.041409 -0.067635 0.173768 0.105143 -0.080263 0.071803 0.061966 0.116611 -0.057666 0.003743 -0.059244 0.179773 0.004039 -0.003181 0.117644 0.025554 -0.136025 -0.129391 0.042089 -0.089757 -0.211070 -0.036724 0.162997 -0.140392 0.013260
fr 0.074408 0.131811 0.096556 -0.082121 -0.008939 -0.038896 -0.001075 -0.009348 -0.027865 -0.061154 0.027504 0.006022 0.015349 -0.046159 -0.145462 -0.002054 0.155095 0.065190 0.019560 -0.001523 0.030897 0.151174 -0.100489 0.035232 0.012702
fucking 0.019189 -0.136135 -0.131860 -0.096163 0.047876 0.025685 0.027460 -0.157218 -0.021528 -0.046164 -0.085588 -0.066306 -0.010344 0.014938 0.019017 -0.017405 -0.003783 0.050753 -0.096159 0.048549 0.109825 0.042633 -0.010420 0.015960 0.084117
genius -0.067917 0.053974 -0.195362 -0.147121 -0.005410 -0.024749 -0.060001 -0.101771 0.061186 0.089904 -0.060273 -0.067914 0.007089 0.011160 -0.076334 0.064070 -0.048690 0.053517 -0.061136 -0.038033 0.103667 -0.065234 -0.009781 0.048363 -0.000228
getting 0.063384 0.080042 0.041474 -0.033178 -0.038548 -0.014382 0.047276 0.011003 0.009406 0.016241 0.007284 -0.061059 0.043449 0.000550 -0.063336 0.025075 0.060458 0.023926 -0.012955 -0.033995 0.007542 0.086545 -0.051406 0.032055 -0.018364
real 0.054095 0.082875 0.098538 -0.021576 0.080589 -0.048196 0.105647 -0.094999 -0.062270 -0.087065 0.053160 0.008115 -0.004199 0.013585 -0.047316 0.053269 0.076565 0.079486 -0.046950 0.009421 0.030986 0.070120 -0.086995 0.100651 -0.013083
send 0.028014 0.105929 -0.146186 -0.035048 0.067202 0.026499 -0.080597 -0.083946 0.101937 0.003433 0.006203 -0.066828 0.000768 0.000065 -0.047820 -0.043688 -0.018159 0.095914 -0.015674 0.032611 0.060372 0.016214 -0.112761 0.048705 -0.025128
server -0.060660 -0.000140 0.047578 -0.198791 0.022981 -0.113736 -0.064841 -0.027287 -0.250335 -0.146219 0.082832 0.057220 -0.131316 -0.198500 -0.116787 0.092676 0.193857 0.103576 0.012337 0.099211 0.070760 0.110305 -0.134901 0.092678 0.088855
support -0.039511 0.057164 -0.044446 -0.031058 0.008932 -0.027625 -0.052145 -0.054747 0.039750 0.054962 -0.017939 -0.065065 0.026239 0.013241 -0.050325 0.007664 -0.011575 0.032471 -0.019396 0.031020 0.032366 -0.002726 -0.082433 0.042230 -0.018646
v -0.037580 0.066822 -0.042240 -0.016003 0.046860 -0.043870 -0.101390 0.024316 -0.076438 -0.023159 0.074888 -0.012126 -0.059445 -0.097994 -0.043873 0.013467 0.123474 0.056086 0.036961 0.065819 0.043010 0.063435 -0.080078 0.035992 0.020285
wait 0.016454 0.119156 -0.123350 0.085631 0.066403 -0.021693 -0.033831 -0.099626 0.077093 -0.007864 0.039729 -0.116198 0.041749 0.049672 -0.049621 -0.011800 -0.015569 0.061788 0.009708 0.056483 0.116929 -0.035239 -0.066425 0.046619 -0.044919
web -0.061197 0.021359 0.075416 -0.034287 0.009203 -0.110318 -0.025662 0.012262 -0.166867 -0.132869 0.034716 0.030787 -0.060774 -0.126550 -0.057084 0.063956 0.146468 0.062723 0.004777 0.052007 0.081086 0.130200 -0.079398 0.091258 0.074863
were -0.022788 0.036696 -0.102093 -0.020612 -0.011770 0.035168 -0.037986 -0.040153 0.098362 0.127635 -0.023011 -0.143126 0.030952 0.088855 -0.024033 -0.031298 -0.105547 0.004658 -0.020235 -0.002343 0.045069 -0.065620 -0.045759 -0.009813 -0.080841
which 0.015869 0.101566 -0.015303 -0.043147 -0.028447 -0.104161 -0.068144 0.009505 0.000209 -0.052762 0.053899 -0.016200 -0.009040 -0.020412 -0.071579 -0.005848 0.117637 0.088991 0.005851 0.023621 0.050798 0.069986 -0.105865 0.044161 0.039502
x -0.042877 0.041559 -0.042224 -0.115393 0.034340 -0.108544 -0.202100 0.013219 -0.120412 -0.118970 0.126608 0.025350 -0.094009 -0.166473 -0.085705 0.037052 0.205834 0.058961 0.045784 0.059779 0.086858 0.073821 -0.092888 0.085530 0.081558
&lt; -0.047884 0.029235 -0.033561 -0.128466 -0.026031 -0.140930 -0.181780 0.039002 -0.217338 -0.191054 0.105573 0.025353 -0.108865 -0.161908 -0.111600 0.062326 0.271460 0.095869 0.105741 0.094200 0.149922 0.152388 -0.150312 0.130183 0.129510
b -0.063749 -0.039068 -0.007855 0.036929 0.029580 -0.089475 -0.163229 0.057974 -0.097482 -0.063183 0.105542 0.090758 -0.070642 -0.096068 0.055145 0.025256 0.020031 -0.040162 0.112629 0.049912 -0.067239 -0.053144 0.019385 -0.025180 0.092102
because 0.019462 0.039293 0.001563 0.003271 0.049808 0.009705 0.014798 -0.060624 0.033047 -0.053998 0.024596 -0.037416 -0.026624 0.025429 -0.027415 0.027199 0.035919 0.024515 -0.022844 0.035251 0.071792 0.005812 -0.056636 0.048887 -0.023794
being 0.002673 0.075858 -0.049043 -0.000726 0.039865 -0.009927 -0.002477 -0.065815 -0.024036 -0.038880 -0.008870 -0.030680 -0.002029 -0.001292 -0.018157 0.038505 0.049598 0.038818 -0.017214 0.006162 0.041013 0.022661 -0.056218 0.037354 -0.021531
big 0.051195 0.166165 0.067448 -0.017028 -0.012131 -0.044047 -0.023361 0.006982 0.030262 0.015733 0.005693 -0.041200 -0.009904 0.011389 -0.090799 -0.032774 0.100402 0.087323 -0.004007 -0.046067 0.032276 0.072820 -0.080091 0.032584 0.016418
bye 0.041809 0.071387 -0.072194 -0.215237 -0.006889 -0.043357 -0.016897 -0.078480 0.008969 0.063724 0.005518 -0.136109 -0.067576 -0.011554 -0.103374 -0.022172 0.052037 0.096732 -0.074293 0.027369 0.116355 0.114139 -0.141802 0.052014 0.085468
fix -0.001794 0.013913 -0.182304 -0.093076 0.013861 0.009760 -0.001598 -0.130905 0.108769 0.005784 -0.005355 -0.117839 0.008724 0.081374 -0.075528 -0.044605 -0.021204 0.088050 -0.065619 0.004895 0.165454 0.065497 -0.081409 0.083558 0.022744
having -0.046258 -0.025299 -0.004598 0.126410 0.050139 0.055557 0.055750 -0.015317 -0.024405 -0.063843 -0.033808 0.018220 0.017311 0.050099 0.072856 0.015516 -0.085929 -0.012747 0.015286 0.082903 0.020177 -0.013536 0.022341 0.003317 0.000702
k -0.044268 0.031577 0.005990 0.017505 -0.082462 -0.110021 -0.236499 0.092776 0.034252 0.014195 0.133417 0.085028 -0.048197 -0.091672 -0.014373 -0.029098 0.035986 -0.026605 0.125734 0.001541 -0.030644 -0.085156 0.023990 0.028580 0.057841
makes 0.072179 0.085095 0.111432 -0.053696 -0.136199 -0.025635 -0.026403 0.173452 -0.006723 -0.011406 0.025249 0.009630 0.013545 -0.035932 -0.076565 -0.054822 0.139588 0.008405 0.078504 -0.076694 -0.063689 0.127782 -0.001760 -0.048408 0.005694
minutes -0.196594 -0.087753 -0.112453 0.032798 0.097092 -0.290406 -0.451812 -0.056368 -0.322263 -0.380988 0.271257 0.228995 -0.230943 -0.308061 0.027977 0.141677 0.272118 0.027414 0.100791 0.275507 0.004070 -0.140161 -0.066622 0.203290 0.251990
pc 0.077295 -0.175487 -0.164818 -0.259571 -0.101704 -0.059859 0.001079 -0.060041 0.006581 -0.118681 -0.090778 -0.011380 -0.047323 -0.028107 -0.077931 -0.144457 0.110556 0.092735 -0.074186 -0.016574 0.133005 0.161930 -0.035532 0.018264 0.187926
pretty -0.002469 0.026765 -0.037487 0.002540 -0.002376 0.014526 0.013885 -0.052593 0.028339 0.075831 0.020516 -0.068117 0.010379 0.014949 -0.023339 0.013462 -0.018816 -0.004187 0.006571 -0.015398 0.027348 -0.052495 -0.037162 0.014632 -0.024550
release -0.028844 0.053392 -0.011831 -0.007011 0.004635 -0.053145 -0.025479 -0.011860 -0.025912 -0.065585 0.040063 0.018795 -0.021016 -0.017130 -0.035566 0.018156 0.072075 0.005167 0.059617 0.011706 0.008780 0.007093 -0.057769 0.036666 -0.008109
right 0.000863 0.006455 -0.053892 -0.001911 -0.003905 0.038268 -0.007089 -0.006520 0.028799 0.061790 -0.031160 -0.064963 0.051399 0.058412 0.025253 0.025916 -0.113045 -0.015482 0.021543 -0.037659 -0.048115 -0.037621 0.048633 -0.050355 -0.027708
smartphone -0.052103 -0.023429 0.158489 0.086518 -0.041022 0.012602 0.084829 0.056779 -0.055479 0.025347 0.041353 0.127516 -0.034604 -0.014204 0.057909 0.001066 -0.065390 -0.070673 0.082006 -0.030862 -0.163882 -0.067445 0.085105 -0.024414 0.019062
that's 0.043116 0.099560 -0.111085 -0.060130 -0.024713 -0.015167 -0.111141 -0.052810 0.121845 0.123082 0.011166 -0.167512 -0.005587 0.060100 -0.140084 -0.023099 -0.000070 0.086174 -0.043996 -0.012793 0.119225 -0.014164 -0.131060 0.088876 -0.051373
um 0.044085 0.110854 0.084313 -0.015607 0.002436 0.011108 0.034976 0.021754 -0.009050 0.013892 0.030115 -0.005713 0.033088 0.016794 -0.070021 0.012879 0.077430 0.018014 -0.005867 -0.025019 -0.014633 0.047562 -0.056015 0.006727 -0.003705
baby -0.136197 -0.171641 0.128983 0.099323 -0.018771 0.057898 0.103123 0.040814 -0.060193 0.083134 -0.065006 0.148498 0.034790 0.091885 0.177137 -0.003134 -0.279509 -0.095934 0.009932 -0.017862 -0.185998 -0.152781 0.148235 -0.057092 -0.032172
ballmer: 0.071371 0.120789 0.104109 -0.086087 -0.101578 -0.047808 -0.078868 0.126403 0.014608 0.005177 0.049611 0.018545 -0.016668 -0.080098 -0.144443 -0.035567 0.215292 0.069487 0.084330 -0.012028 0.058727 0.180645 -0.071539 -0.026977 -0.032213
bookcase -0.063926 -0.037921 0.067136 -0.070623 -0.124899 0.037048 0.044584 -0.034462 -0.049427 0.024556 0.034477 0.078527 -0.057534 0.023755 -0.067245 -0.038278 -0.029788 -0.043468 -0.049594 0.017250 -0.078333 0.044436 0.038795 0.019329 0.074872
cool 0.054072 0.018788 0.008655 -0.029748 0.020462 -0.017262 0.075307 -0.007194 0.022008 -0.001569 -0.045262 -0.053808 0.015110 0.037328 -0.024075 0.009119 0.068298 0.058874 -0.014241 0.012262 0.029352 0.067551 -0.056942 0.039429 -0.000099
cuando 0.073402 0.141160 -0.005250 -0.073354 0.018318 0.023459 -0.008547 -0.005269 0.077052 0.028445 -0.003148 -0.027001 -0.052101 -0.012554 -0.096967 0.012240 0.114447 0.067182 0.005585 -0.030194 0.035038 0.084484 -0.094214 0.005922 -0.028309
damn 0.042534 0.043307 -0.038725 -0.160401 0.026462 -0.030138 0.027112 -0.080431 0.006562 -0.012715 -0.017560 -0.090371 0.027285 -0.006983 -0.082716 -0.011325 0.057070 0.054001 -0.065812 -0.019130 0.082309 0.134070 -0.055171 0.015777 0.078584
doesn't -0.051890 -0.051825 -0.103668 0.050169 0.000711 0.020030 -0.026622 -0.019509 0.030889 0.053504 0.001456 -0.062283 0.050535 0.074810 0.027000 -0.029658 -0.121874 -0.052892 -0.023074 0.002320 0.008593 -0.074822 0.027862 0.004517 -0.015550
du 0.048982 0.080309 0.130204 -0.019597 -0.040720 -0.052387 0.022858 0.005357 -0.060254 -0.047472 0.009003 0.014384 -0.016019 -0.028095 -0.044806 0.014207 0.064228 0.054210 0.025645 -0.005027 -0.008524 0.076383 -0.052184 0.017618 -0.009704
ever -0.010135 -0.056883 -0.074980 0.000085 0.007260 0.020010 0.001995 0.035712 0.055914 0.068229 -0.022575 -0.019419 0.001135 0.015817 0.060135 -0.055262 -0.087118 -0.022634 0.009652 -0.030082 -0.016513 -0.041336 0.077126 -0.067773 -0.019346
features 0.010212 0.073812 0.079294 -0.070923 -0.021210 -0.070292 -0.009216 -0.009689 -0.060782 -0.073437 0.039822 0.046302 -0.047550 -0.037600 -0.113656 0.026529 0.116187 0.089556 -0.024509 0.038391 -0.014749 0.081748 -0.048023 0.044031 0.057580
ik 0.050843 0.034689 0.044115 -0.055683 -0.007658 0.042519 0.059765 0.024060 0.047731 0.053823 -0.001800 -0.043842 0.024131 0.031876 0.002573 -0.012093 -0.019345 -0.031185 0.008701 -0.005568 0.004896 0.023297 -0.012284 -0.022051 -0.007397
isn't -0.007984 -0.001492 -0.117484 -0.062612 -0.038662 -0.002680 -0.023240 -0.057432 0.032490 0.108300 -0.019414 -0.114761 0.019805 0.050321 -0.084026 -0.050586 0.006596 0.021860 -0.001509 0.001108 0.093275 0.010348 -0.037351 0.020585 -0.012759
itunes -0.047025 0.028474 -0.122241 -0.071767 0.048480 -0.001049 -0.015551 -0.099294 0.037990 0.002351 0.004844 -0.061185 -0.007582 0.007711 -0.058432 0.019246 -0.009249 0.036829 -0.050223 0.022053 0.118806 -0.003818 -0.084449 0.036632 0.023726
naar 0.064157 0.125264 0.224953 0.001384 -0.072345 -0.021091 0.101144 0.078124 -0.058575 -0.008657 -0.018896 0.032120 -0.025762 0.029453 -0.034648 0.012476 0.082659 0.052925 0.009946 -0.078406 -0.097749 0.078114 -0.044127 -0.005666 -0.042105
own 0.018862 -0.010578 0.163101 0.080998 0.034983 -0.001992 0.161416 0.051300 -0.094504 -0.057460 0.015867 0.088817 -0.026428 0.017862 0.060705 0.012559 -0.005838 -0.028783 -0.016846 -0.021098 -0.120144 0.031687 0.000585 -0.024373 -0.007811
page 0.033605 -0.002208 -0.021636 -0.026706 -0.009607 -0.011652 -0.017492 -0.006018 0.062855 0.022993 -0.000013 -0.024735 -0.027731 -0.028731 -0.006019 0.008054 -0.001260 0.004987 -0.029175 0.003938 -0.029550 -0.020264 0.006703 -0.037525 -0.008946
qe 0.078316 0.056088 -0.000393 -0.076837 0.042124 0.009447 0.025086 -0.029797 0.057602 -0.025444 -0.027455 -0.024190 -0.022151 -0.038909 -0.032771 -0.002915 0.080555 0.064400 -0.027310 -0.014097 -0.002454 0.104876 -0.038329 0.027867 -0.006207
sitio 0.007697 0.065385 0.100983 0.099187 -0.102229 0.052131 0.054961 0.127745 0.008328 0.038497 0.048191 0.085506 -0.033317 -0.070439 0.038194 -0.048061 -0.080165 -0.082236 0.048278 -0.053261 -0.125411 -0.006629 0.111591 -0.053807 -0.111431
something -0.003428 0.020044 0.040452 0.111049 0.049865 0.012038 0.047265 -0.007118 0.005428 -0.001589 -0.034352 0.027522 0.045496 0.065519 0.034224 0.040474 -0.105068 -0.079079 0.016596 -0.020629 0.023727 -0.076844 0.074403 -0.014774 -0.044969
today -0.037215 0.047917 -0.060277 -0.064556 -0.109712 -0.021508 -0.139522 -0.022149 0.083575 0.108466 -0.018275 -0.123194 0.019225 0.038348 -0.102417 -0.006031 0.026705 0.029348 0.041667 -0.024461 0.077557 0.028851 -0.060374 0.000280 0.017132
tu 0.094899 0.093727 0.117471 -0.060365 0.063822 0.004349 0.070490 0.006100 0.002932 -0.049035 0.000631 -0.019088 -0.023803 -0.041848 -0.062895 0.063968 0.103525 0.046419 -0.045652 0.006505 -0.040968 0.153636 -0.100077 0.024185 -0.009096
year -0.079552 -0.041298 -0.066191 -0.068532 0.131318 -0.138184 -0.190167 -0.079160 -0.226972 -0.227279 0.132572 0.108165 -0.165584 -0.201213 -0.036010 0.146459 0.188095 0.073950 0.027701 0.143514 0.052859 0.004801 -0.095679 0.124338 0.104441
@ 0.007456 -0.003644 -0.045602 -0.142031 -0.041913 -0.040126 -0.050683 -0.040089 0.030855 0.032736 0.018048 0.010246 -0.038356 -0.019675 -0.089443 -0.019042 0.080100 0.043675 -0.023438 0.010958 0.035942 0.086356 -0.033229 0.075572 0.039100
add 0.036341 0.023518 -0.005981 0.008230 0.006624 0.013939 -0.018899 0.019697 0.016888 0.003227 0.018828 -0.021998 0.044580 -0.007791 -0.037967 -0.010243 0.024696 0.019172 0.021356 -0.004972 0.041668 0.038093 -0.044625 0.023752 -0.015718
anyone -0.032335 -0.016321 -0.033035 0.003824 -0.055135 0.009544 -0.002757 0.021359 0.030221 0.079859 -0.010988 0.014435 0.002545 0.036737 0.022348 0.002083 -0.081030 -0.030388 0.036955 -0.039891 -0.050456 -0.018328 0.051064 -0.048708 -0.021477
app! -0.144803 -0.018416 0.227010 0.019716 -0.098596 0.003857 0.136027 -0.018033 -0.217357 -0.104016 -0.003893 0.214612 0.006880 0.040685 -0.047580 0.076149 0.003154 -0.037076 -0.050202 -0.026609 -0.154956 0.017091 -0.010865 0.072134 0.107942
ass -0.012394 -0.071828 0.019208 0.060196 0.016057 0.057049 0.058742 0.070055 -0.018962 0.056245 -0.024754 0.043867 0.015880 0.008962 0.050820 -0.018039 -0.128616 -0.062725 0.034662 -0.057883 -0.098395 -0.067195 0.077315 -0.064340 -0.025032
buenas 0.046475 0.062333 0.028989 -0.005342 0.027654 0.046944 0.050506 0.030988 -0.028980 0.014332 -0.020455 0.022505 0.010276 -0.048396 -0.018185 -0.020150 0.025365 0.005463 0.020029 -0.011822 0.020690 0.023922 0.037994 -0.032786 -0.002159
come 0.002481 0.078167 -0.015971 -0.020256 0.001028 -0.021516 -0.023085 -0.060218 0.029381 0.025795 0.003906 -0.076476 0.022284 0.011557 -0.033292 0.028608 0.003691 0.028407 0.006945 0.050921 0.042904 0.009435 -0.051274 0.024199 -0.049425
customer -0.047503 -0.066038 -0.085227 0.030204 -0.019783 0.073228 0.003259 0.036594 0.054949 0.111201 -0.017439 -0.005292 0.042045 0.033765 0.099563 -0.003459 -0.189098 -0.087324 0.007635 -0.066567 -0.050847 -0.146735 0.112798 -0.060849 -0.011443
dat 0.049716 -0.039167 0.046242 -0.056978 0.019730 0.034475 0.074489 0.005045 -0.027114 0.025153 -0.024815 -0.051613 0.010024 0.037325 0.011517 0.014282 0.013221 0.000070 -0.019681 0.016600 -0.029595 -0.011350 -0.003745 -0.035688 -0.030084
die 0.101626 0.125736 0.082440 -0.120114 -0.065250 -0.072526 0.029713 0.003882 -0.010619 -0.031097 0.029439 -0.011886 0.010771 -0.025558 -0.115146 -0.024418 0.154848 0.105568 -0.027234 -0.045995 0.028111 0.149786 -0.090949 0.023099 0.008350
ebook: -0.076453 0.034391 0.163059 -0.052502 -0.042678 0.031327 0.089441 -0.053156 -0.133572 -0.067805 0.073588 0.183350 -0.097461 0.020691 -0.092021 0.040436 -0.014453 -0.008206 -0.024008 0.030822 -0.045497 0.018878 -0.015599 0.112911 0.069801
facebook 0.040997 -0.007006 -0.022441 -0.132544 -0.019981 -0.030916 -0.015902 -0.055052 0.001922 -0.019623 0.010642 -0.048343 -0.001023 0.017037 -0.044192 -0.020397 0.087641 0.052479 -0.026832 -0.002518 0.063483 0.110360 -0.050565 0.036557 0.000907
finally 0.031884 0.053554 -0.066855 -0.006956 0.009813 0.024572 -0.018563 -0.020711 0.060161 0.014416 0.011138 -0.043684 0.034072 0.000845 -0.045454 -0.020240 0.032897 0.006518 0.011921 0.012911 0.086806 0.043256 -0.023327 0.033282 -0.040858
gente 0.071921 0.053348 -0.024644 -0.088086 0.034584 -0.046828 -0.010078 -0.020403 0.070873 -0.021836 0.014112 -0.019722 -0.041007 -0.054104 -0.075076 -0.027334 0.099682 0.073091 -0.042473 0.010876 0.022748 0.110024 -0.037488 -0.007094 0.021057
keep -0.011272 0.034417 -0.013560 0.052417 0.024584 0.007051 -0.022118 0.012309 0.045364 0.006103 0.011025 0.014948 0.024669 0.017868 0.036900 0.000441 -0.065341 -0.015262 0.040152 -0.001470 0.035984 -0.059786 0.013938 -0.010114 -0.055541
lot 0.021635 0.039829 -0.076106 -0.115291 0.121440 -0.021181 0.017328 -0.082462 0.076691 -0.069465 -0.009566 0.020119 -0.145292 -0.138580 -0.023626 0.183418 0.127107 0.135641 -0.060111 0.031632 -0.008718 0.060470 -0.058819 0.012463 0.006060
mobile -0.003444 0.063159 0.026513 -0.037499 0.033257 -0.025196 0.040543 -0.037418 -0.036488 -0.023474 0.053628 -0.012528 -0.018098 -0.041618 -0.078031 0.017371 0.065393 0.016072 -0.000833 -0.010027 0.000605 0.039650 -0.060153 0.044780 0.012732
online -0.009749 0.047970 0.058925 -0.018417 -0.027484 -0.039291 -0.003112 0.036397 -0.057854 -0.031278 0.031210 0.023178 -0.001282 -0.035850 -0.047866 -0.002821 0.064957 0.031931 0.043765 0.016308 -0.019542 0.068703 -0.024907 -0.013292 0.027288
pdf -0.075956 -0.038195 0.033919 -0.033449 -0.077841 0.062826 0.034260 -0.017478 -0.044632 0.049847 -0.003045 0.085954 -0.066548 0.039289 -0.010148 -0.033565 -0.144547 -0.035419 0.003962 -0.029588 -0.061626 -0.042343 0.083302 0.025431 0.031161
pour 0.031518 0.018246 0.001484 -0.075941 0.023044 0.000429 -0.036588 0.015261 0.039579 0.069977 -0.003377 -0.042428 -0.020977 0.018695 -0.021148 0.013406 0.056375 0.019901 0.003678 -0.023636 -0.003828 0.013472 0.003070 0.028651 -0.041940
pra -0.040093 -0.056200 -0.042809 0.016339 -0.069447 0.012210 -0.027303 -0.002266 0.043544 0.079211 0.007256 -0.030596 0.035937 0.017736 0.049052 -0.033645 -0.105925 -0.044114 0.014455 -0.040859 -0.032333 -0.082318 0.075269 -0.035865 0.013785
since -0.027726 0.011641 -0.050516 -0.002250 0.019125 0.006026 0.016008 -0.041850 -0.038170 0.012451 -0.005201 -0.043318 -0.013295 0.000574 -0.004135 0.009567 -0.036183 0.013656 -0.010783 0.004295 0.028750 -0.021937 -0.003255 0.007460 0.004878
social -0.014495 0.045133 0.099235 0.022140 0.020610 -0.012257 0.061309 0.004073 -0.050538 -0.039973 0.039339 0.051802 0.009986 0.015406 0.001329 0.038402 0.030950 0.046989 0.004638 -0.003535 -0.063799 0.000026 -0.008643 0.046823 0.009026
une 0.088782 0.049937 0.053414 -0.066253 -0.011639 -0.010794 -0.004192 0.056462 0.034831 0.019161 0.033097 -0.003863 0.005540 -0.035311 -0.016615 0.006302 0.081138 0.005269 -0.008558 -0.027210 -0.010014 0.060560 -0.002335 0.004748 -0.073374
waiting 0.016620 0.059356 -0.030525 0.020572 0.012805 -0.007120 -0.053007 -0.074462 0.086750 0.050451 0.010777 -0.059705 0.027573 -0.001308 -0.085919 -0.058621 0.066266 0.046680 0.003882 0.040529 0.061689 0.022216 -0.048357 0.078050 -0.012945
&gt; -0.014202 0.089480 0.076502 -0.104423 -0.068944 -0.084515 -0.065190 0.016417 -0.076970 -0.049466 0.056714 -0.029612 -0.025994 -0.055751 -0.168128 0.020462 0.173471 0.066900 -0.008073 0.006938 0.038799 0.090946 -0.119219 0.045452 0.033528
also -0.006458 0.006497 -0.072697 -0.090724 -0.027652 0.010296 -0.031891 -0.046891 0.021262 0.109629 -0.041645 -0.120896 0.046182 0.051018 -0.036511 -0.064496 -0.066068 0.001812 -0.029261 -0.007453 0.075476 0.001234 -0.034309 0.014759 -0.034632
bad -0.034396 -0.058118 0.024826 0.023689 0.015979 0.041353 0.063707 0.011823 -0.004210 0.054268 -0.044184 -0.011143 0.012932 0.029788 0.072777 -0.031779 -0.039738 -0.029591 -0.019869 -0.016227 -0.031549 -0.045293 0.023557 -0.055147 -0.025244
deal -0.050438 0.000925 0.162029 0.067664 -0.061657 0.051112 0.051281 0.123267 -0.075471 0.018660 0.027291 0.137444 0.016905 -0.009845 0.020815 -0.024644 -0.045836 -0.077102 0.042974 -0.059016 -0.134088 -0.024503 0.093886 -0.079543 0.004181
em 0.011820 0.010001 -0.037976 -0.052316 -0.004376 0.032728 -0.004318 -0.041239 0.078298 0.065617 0.048044 -0.005533 -0.042943 0.041479 -0.047556 0.015406 0.045078 0.021098 -0.019204 -0.006030 0.016797 0.017186 -0.039085 0.014076 -0.021697
funny 0.055686 -0.005031 0.035460 -0.034862 0.012041 0.012724 0.031296 0.023004 0.009024 0.045061 -0.005093 -0.031483 0.002759 0.003620 -0.014444 0.005939 0.053471 -0.030342 0.002910 -0.032469 -0.024978 0.047923 0.018282 -0.063866 -0.034001
hate 0.049134 0.115189 -0.082895 0.065809 0.067486 -0.009921 0.038056 -0.089244 0.099765 -0.056705 -0.023283 -0.147314 0.043292 0.135158 -0.108313 0.005084 0.002547 0.049640 -0.081290 -0.024424 0.167891 -0.009278 -0.091809 0.103101 -0.060920
i've -0.011349 -0.011200 0.018944 0.062542 -0.020917 -0.001402 -0.015405 0.053697 0.045829 0.066959 0.052163 0.054917 -0.006225 -0.005639 0.076671 -0.005714 -0.036458 -0.048183 0.079606 -0.068521 -0.107444 -0.066188 0.051011 -0.061987 -0.001205
last -0.066372 -0.013601 -0.096462 -0.046103 0.087872 -0.096001 -0.040137 -0.087401 -0.139565 -0.086361 0.062100 0.019218 -0.081206 -0.112297 0.011145 0.137293 0.119404 0.044118 -0.011342 0.097809 0.065206 -0.044102 -0.029232 0.052201 0.046982
making 0.016327 0.071810 0.032412 0.094127 -0.032052 0.010882 0.032179 -0.029868 0.004885 0.016438 0.005585 -0.011365 0.052870 0.017729 -0.000497 -0.005131 -0.035912 -0.015366 -0.001782 -0.010732 0.042464 -0.006174 -0.001014 0.029870 -0.025359
many -0.013570 -0.049573 0.055667 0.030110 0.006182 0.030392 0.066419 0.033972 -0.020597 0.055450 -0.034431 0.001977 0.046361 -0.022493 0.054861 -0.008651 -0.070678 -0.033904 0.000627 0.008009 -0.038601 -0.028545 0.031382 -0.046199 0.011837
memories -0.103920 -0.127180 0.207077 0.103922 -0.120819 0.055631 0.140090 0.063794 -0.113496 -0.018136 -0.060161 0.162999 0.040098 0.061372 0.110753 -0.015819 -0.185746 -0.106882 0.010065 -0.060605 -0.230050 -0.060867 0.100572 -0.050391 0.015898
oh 0.006400 0.067023 -0.163522 -0.103298 -0.044882 -0.001734 -0.087374 -0.068454 0.100606 0.153896 -0.010149 -0.116892 0.033932 0.051067 -0.130853 -0.009881 0.003657 0.064107 0.001375 -0.012459 0.158833 0.024990 -0.079450 0.091821 -0.009037
ok 0.026510 0.024439 -0.081447 -0.084771 -0.026699 -0.016119 -0.051162 -0.006419 0.030433 0.075284 -0.034564 -0.082564 0.008122 -0.008303 -0.056100 -0.041702 0.041748 0.029729 0.003105 0.009982 0.063605 0.083681 -0.029617 0.002468 0.032847
other -0.039207 -0.130523 0.012214 0.059129 0.001544 0.075481 0.123247 -0.029587 -0.037660 0.020423 -0.029637 0.003392 0.036411 0.031508 0.149356 -0.000667 -0.129260 -0.099696 0.013457 -0.015987 -0.067021 -0.048383 0.105554 -0.017432 -0.034383
per -0.037467 0.040956 0.054504 -0.028015 0.008331 -0.059272 -0.085471 0.011934 -0.081239 -0.024339 0.098396 0.040108 -0.065507 -0.084048 -0.075404 0.018596 0.106851 0.026257 0.048934 0.030049 -0.027776 -0.042604 -0.042850 0.054643 0.046526
ser 0.003623 -0.006076 0.030973 0.039666 -0.000784 0.062237 0.050217 0.078228 0.036761 0.023667 -0.003566 0.014693 -0.021115 -0.010190 0.045430 0.002065 -0.055295 -0.041296 0.028587 -0.035009 -0.058943 -0.045425 0.030634 -0.048025 -0.013335
